{"learner":{"attributes":{"scikit_learn":"{\"_estimator_type\": \"regressor\"}"},"feature_names":[],"feature_types":[],"gradient_booster":{"model":{"gbtree_model_param":{"num_parallel_tree":"1","num_trees":"500"},"iteration_indptr":[0,1,2,3,4,5,6,7,8,9,10,11,12,13,14,15,16,17,18,19,20,21,22,23,24,25,26,27,28,29,30,31,32,33,34,35,36,37,38,39,40,41,42,43,44,45,46,47,48,49,50,51,52,53,54,55,56,57,58,59,60,61,62,63,64,65,66,67,68,69,70,71,72,73,74,75,76,77,78,79,80,81,82,83,84,85,86,87,88,89,90,91,92,93,94,95,96,97,98,99,100,101,102,103,104,105,106,107,108,109,110,111,112,113,114,115,116,117,118,119,120,121,122,123,124,125,126,127,128,129,130,131,132,133,134,135,136,137,138,139,140,141,142,143,144,145,146,147,148,149,150,151,152,153,154,155,156,157,158,159,160,161,162,163,164,165,166,167,168,169,170,171,172,173,174,175,176,177,178,179,180,181,182,183,184,185,186,187,188,189,190,191,192,193,194,195,196,197,198,199,200,201,202,203,204,205,206,207,208,209,210,211,212,213,214,215,216,217,218,219,220,221,222,223,224,225,226,227,228,229,230,231,232,233,234,235,236,237,238,239,240,241,242,243,244,245,246,247,248,249,250,251,252,253,254,255,256,257,258,259,260,261,262,263,264,265,266,267,268,269,270,271,272,273,274,275,276,277,278,279,280,281,282,283,284,285,286,287,288,289,290,291,292,293,294,295,296,297,298,299,300,301,302,303,304,305,306,307,308,309,310,311,312,313,314,315,316,317,318,319,320,321,322,323,324,325,326,327,328,329,330,331,332,333,334,335,336,337,338,339,340,341,342,343,344,345,346,347,348,349,350,351,352,353,354,355,356,357,358,359,360,361,362,363,364,365,366,367,368,369,370,371,372,373,374,375,376,377,378,379,380,381,382,383,384,385,386,387,388,389,390,391,392,393,394,395,396,397,398,399,400,401,402,403,404,405,406,407,408,409,410,411,412,413,414,415,416,417,418,419,420,421,422,423,424,425,426,427,428,429,430,431,432,433,434,435,436,437,438,439,440,441,442,443,444,445,446,447,448,449,450,451,452,453,454,455,456,457,458,459,460,461,462,463,464,465,466,467,468,469,470,471,472,473,474,475,476,477,478,479,480,481,482,483,484,485,486,487,488,489,490,491,492,493,494,495,496,497,498,499,500],"tree_info":[0,0,0,0,0,0,0,0,0,0,0,0,0,0,0,0,0,0,0,0,0,0,0,0,0,0,0,0,0,0,0,0,0,0,0,0,0,0,0,0,0,0,0,0,0,0,0,0,0,0,0,0,0,0,0,0,0,0,0,0,0,0,0,0,0,0,0,0,0,0,0,0,0,0,0,0,0,0,0,0,0,0,0,0,0,0,0,0,0,0,0,0,0,0,0,0,0,0,0,0,0,0,0,0,0,0,0,0,0,0,0,0,0,0,0,0,0,0,0,0,0,0,0,0,0,0,0,0,0,0,0,0,0,0,0,0,0,0,0,0,0,0,0,0,0,0,0,0,0,0,0,0,0,0,0,0,0,0,0,0,0,0,0,0,0,0,0,0,0,0,0,0,0,0,0,0,0,0,0,0,0,0,0,0,0,0,0,0,0,0,0,0,0,0,0,0,0,0,0,0,0,0,0,0,0,0,0,0,0,0,0,0,0,0,0,0,0,0,0,0,0,0,0,0,0,0,0,0,0,0,0,0,0,0,0,0,0,0,0,0,0,0,0,0,0,0,0,0,0,0,0,0,0,0,0,0,0,0,0,0,0,0,0,0,0,0,0,0,0,0,0,0,0,0,0,0,0,0,0,0,0,0,0,0,0,0,0,0,0,0,0,0,0,0,0,0,0,0,0,0,0,0,0,0,0,0,0,0,0,0,0,0,0,0,0,0,0,0,0,0,0,0,0,0,0,0,0,0,0,0,0,0,0,0,0,0,0,0,0,0,0,0,0,0,0,0,0,0,0,0,0,0,0,0,0,0,0,0,0,0,0,0,0,0,0,0,0,0,0,0,0,0,0,0,0,0,0,0,0,0,0,0,0,0,0,0,0,0,0,0,0,0,0,0,0,0,0,0,0,0,0,0,0,0,0,0,0,0,0,0,0,0,0,0,0,0,0,0,0,0,0,0,0,0,0,0,0,0,0,0,0,0,0,0,0,0,0,0,0,0,0,0,0,0,0,0,0,0,0,0,0,0,0,0,0,0,0,0,0,0,0,0,0,0,0,0,0,0,0,0,0,0,0,0,0,0,0,0,0,0,0,0,0,0,0,0,0,0,0,0,0,0,0,0,0,0,0,0,0,0],"trees":[{"base_weights":[2.0417905E-7,-1.6943523E-1,6.648536E-1,-2.6432233E0,-1.2774758E-1,1.0371383E0,-1.02401994E-1,-3.0502763E-2,2.7154349E-2,-2.491608E-3,5.8278027E-3,2.1629536E-3,2.6975429E-2,1.2063891E-2,-8.914704E-3],"categories":[],"categories_nodes":[],"categories_segments":[],"categories_sizes":[],"default_left":[0,0,0,0,0,0,0,0,0,0,0,0,0,0,0],"id":0,"left_children":[1,3,5,7,9,11,13,-1,-1,-1,-1,-1,-1,-1,-1],"loss_changes":[2.9897235E2,2.1777475E2,1.5406485E2,8.462685E1,1.7966786E2,4.9416068E2,1.8386792E2,0E0,0E0,0E0,0E0,0E0,0E0,0E0,0E0],"parents":[2147483647,0,0,1,1,2,2,3,3,4,4,5,5,6,6],"right_children":[2,4,6,8,10,12,14,-1,-1,-1,-1,-1,-1,-1,-1],"split_conditions":[6.0168105E-1,-2.1605124E0,4.1884425E-1,1.2444252E0,9.278777E-1,-1.7741483E-2,-3.9089775E-1,-3.0502763E-2,2.7154349E-2,-2.491608E-3,5.8278027E-3,2.1629536E-3,2.6975429E-2,1.2063891E-2,-8.914704E-3],"split_indices":[0,14,9,3,8,4,17,0,0,0,0,0,0,0,0],"split_type":[0,0,0,0,0,0,0,0,0,0,0,0,0,0,0],"sum_hessian":[2.652E3,2.114E3,5.38E2,3.4E1,2.08E3,3.62E2,1.76E2,3.2E1,2E0,1.777E3,3.03E2,2.43E2,1.19E2,6.6E1,1.1E2],"tree_param":{"num_deleted":"0","num_feature":"20","num_nodes":"15","size_leaf_vector":"1"}},{"base_weights":[1.25839715E-5,-1.6774061E-1,6.5826494E-1,-2.616887E0,-1.2646823E-1,4.589198E-1,2.0799518E0,-3.0206982E-2,2.6973324E-2,-2.4667026E-3,5.7697156E-3,8.648686E-3,-4.067407E-3,3.1045422E-2,-8.247646E-3],"categories":[],"categories_nodes":[],"categories_segments":[],"categories_sizes":[],"default_left":[0,0,0,0,0,0,0,0,0,0,0,0,0,0,0],"id":1,"left_children":[1,3,5,7,9,11,13,-1,-1,-1,-1,-1,-1,-1,-1],"loss_changes":[2.9306512E2,2.134578E2,1.518015E2,8.325578E1,1.7610107E2,1.6692197E2,1.9898608E2,0E0,0E0,0E0,0E0,0E0,0E0,0E0,0E0],"parents":[2147483647,0,0,1,1,2,2,3,3,4,4,5,5,6,6],"right_children":[2,4,6,8,10,12,14,-1,-1,-1,-1,-1,-1,-1,-1],"split_conditions":[6.0168105E-1,-2.1605124E0,1.1612833E0,1.2444252E0,9.278777E-1,4.1884425E-1,4.897226E-1,-3.0206982E-2,2.6973324E-2,-2.4667026E-3,5.7697156E-3,8.648686E-3,-4.067407E-3,3.1045422E-2,-8.247646E-3],"split_indices":[0,14,13,3,8,9,19,0,0,0,0,0,0,0,0],"split_type":[0,0,0,0,0,0,0,0,0,0,0,0,0,0,0],"sum_hessian":[2.652E3,2.114E3,5.38E2,3.4E1,2.08E3,4.73E2,6.5E1,3.2E1,2E0,1.777E3,3.03E2,3.22E2,1.51E2,4.8E1,1.7E1],"tree_param":{"num_deleted":"0","num_feature":"20","num_nodes":"15","size_leaf_vector":"1"}},{"base_weights":[2.3083736E-5,-1.6606282E-1,6.51733E-1,-2.5908108E0,-1.2520157E-1,6.110995E-1,7.707888E-2,-2.9914068E-2,2.6793499E-2,-2.442045E-3,5.712208E-3,4.072745E-3,2.0594979E-2],"categories":[],"categories_nodes":[],"categories_segments":[],"categories_sizes":[],"default_left":[0,0,0,0,0,0,0,0,0,0,0,0,0],"id":2,"left_children":[1,3,5,7,9,11,-1,-1,-1,-1,-1,-1,-1],"loss_changes":[2.872685E2,2.0922604E2,1.4982985E2,8.190724E1,1.7260509E2,1.5769424E2,0E0,0E0,0E0,0E0,0E0,0E0,0E0],"parents":[2147483647,0,0,1,1,2,2,3,3,4,4,5,5],"right_children":[2,4,6,8,10,12,-1,-1,-1,-1,-1,-1,-1],"split_conditions":[6.0168105E-1,-2.1605124E0,3.5423758E0,1.2444252E0,9.278777E-1,1.1612833E0,7.707888E-2,-2.9914068E-2,2.6793499E-2,-2.442045E-3,5.712208E-3,4.072745E-3,2.0594979E-2],"split_indices":[0,14,17,3,8,13,0,0,0,0,0,0,0],"split_type":[0,0,0,0,0,0,0,0,0,0,0,0,0],"sum_hessian":[2.652E3,2.114E3,5.38E2,3.4E1,2.08E3,5.36E2,2E0,3.2E1,2E0,1.777E3,3.03E2,4.71E2,6.5E1],"tree_param":{"num_deleted":"0","num_feature":"20","num_nodes":"13","size_leaf_vector":"1"}},{"base_weights":[6.1377374E-5,-1.6440189E-1,6.4540416E-1,-2.5649922E0,-1.23947755E-1,1.0106448E0,-1.072952E-1,-2.9623995E-2,2.6614875E-2,-1.6145477E-4,-8.822474E-3,1.9876764E-3,2.6530398E-2,1.1895071E-2,-8.890831E-3],"categories":[],"categories_nodes":[],"categories_segments":[],"categories_sizes":[],"default_left":[0,0,0,0,0,0,0,0,0,0,0,0,0,0,0],"id":3,"left_children":[1,3,5,7,9,11,13,-1,-1,-1,-1,-1,-1,-1,-1],"loss_changes":[2.8168274E2,2.0507776E2,1.4828838E2,8.058087E1,1.7010008E2,4.8350525E2,1.805045E2,0E0,0E0,0E0,0E0,0E0,0E0,0E0,0E0],"parents":[2147483647,0,0,1,1,2,2,3,3,4,4,5,5,6,6],"right_children":[2,4,6,8,10,12,14,-1,-1,-1,-1,-1,-1,-1,-1],"split_conditions":[6.0168105E-1,-2.1605124E0,4.1884425E-1,1.2444252E0,9.4636E-1,-1.7741483E-2,-3.9089775E-1,-2.9623995E-2,2.6614875E-2,-1.6145477E-4,-8.822474E-3,1.9876764E-3,2.6530398E-2,1.1895071E-2,-8.890831E-3],"split_indices":[0,14,9,3,10,4,17,0,0,0,0,0,0,0,0],"split_type":[0,0,0,0,0,0,0,0,0,0,0,0,0,0,0],"sum_hessian":[2.652E3,2.114E3,5.38E2,3.4E1,2.08E3,3.62E2,1.76E2,3.2E1,2E0,1.822E3,2.58E2,2.43E2,1.19E2,6.6E1,1.1E2],"tree_param":{"num_deleted":"0","num_feature":"20","num_nodes":"15","size_leaf_vector":"1"}},{"base_weights":[6.795783E-5,-1.6276379E-1,6.3900876E-1,-2.5394282E0,-1.2271285E-1,5.986478E-1,7.650622E-2,-2.9336734E-2,2.643744E-2,-2.4059892E-3,5.671693E-3,3.969299E-3,2.0321654E-2],"categories":[],"categories_nodes":[],"categories_segments":[],"categories_sizes":[],"default_left":[0,0,0,0,0,0,0,0,0,0,0,0,0],"id":4,"left_children":[1,3,5,7,9,11,-1,-1,-1,-1,-1,-1,-1],"loss_changes":[2.7612173E2,2.0101025E2,1.4795459E2,7.9276276E1,1.69379E2,1.544756E2,0E0,0E0,0E0,0E0,0E0,0E0,0E0],"parents":[2147483647,0,0,1,1,2,2,3,3,4,4,5,5],"right_children":[2,4,6,8,10,12,-1,-1,-1,-1,-1,-1,-1],"split_conditions":[6.0168105E-1,-2.1605124E0,3.5423758E0,1.2444252E0,9.278777E-1,1.1612833E0,7.650622E-2,-2.9336734E-2,2.643744E-2,-2.4059892E-3,5.671693E-3,3.969299E-3,2.0321654E-2],"split_indices":[0,14,17,3,8,13,0,0,0,0,0,0,0],"split_type":[0,0,0,0,0,0,0,0,0,0,0,0,0],"sum_hessian":[2.652E3,2.114E3,5.38E2,3.4E1,2.08E3,5.36E2,2E0,3.2E1,2E0,1.777E3,3.03E2,4.71E2,6.5E1],"tree_param":{"num_deleted":"0","num_feature":"20","num_nodes":"13","size_leaf_vector":"1"}},{"base_weights":[1.0553864E-4,-1.6113584E-1,6.3280576E-1,-2.5141165E0,-1.2148401E-1,5.927066E-1,7.5996175E-2,-3.740251E-2,-6.299204E-3,-1.4691762E-4,-8.726839E-3,3.9296914E-3,2.0121517E-2],"categories":[],"categories_nodes":[],"categories_segments":[],"categories_sizes":[],"default_left":[0,0,0,0,0,0,0,0,0,0,0,0,0],"id":5,"left_children":[1,3,5,7,9,11,-1,-1,-1,-1,-1,-1,-1],"loss_changes":[2.7075427E2,1.9702406E2,1.4607242E2,7.850368E1,1.6692984E2,1.5145757E2,0E0,0E0,0E0,0E0,0E0,0E0,0E0],"parents":[2147483647,0,0,1,1,2,2,3,3,4,4,5,5],"right_children":[2,4,6,8,10,12,-1,-1,-1,-1,-1,-1,-1],"split_conditions":[6.0168105E-1,-2.1605124E0,3.5423758E0,2.6680726E-1,9.4636E-1,1.1612833E0,7.5996175E-2,-3.740251E-2,-6.299204E-3,-1.4691762E-4,-8.726839E-3,3.9296914E-3,2.0121517E-2],"split_indices":[0,14,17,3,10,13,0,0,0,0,0,0,0],"split_type":[0,0,0,0,0,0,0,0,0,0,0,0,0],"sum_hessian":[2.652E3,2.114E3,5.38E2,3.4E1,2.08E3,5.36E2,2E0,2E1,1.4E1,1.822E3,2.58E2,4.71E2,6.5E1],"tree_param":{"num_deleted":"0","num_feature":"20","num_nodes":"13","size_leaf_vector":"1"}},{"base_weights":[1.2228491E-4,-1.5954937E-1,6.2666297E-1,-2.4902244E0,-1.20273456E-1,9.8875517E-1,-1.19473405E-1,-2.8802669E-2,2.6303183E-2,-2.3705326E-3,5.631305E-3,1.8598711E-3,2.6128106E-2,1.1661223E-2,-8.9438725E-3],"categories":[],"categories_nodes":[],"categories_segments":[],"categories_sizes":[],"default_left":[0,0,0,0,0,0,0,0,0,0,0,0,0,0,0],"id":6,"left_children":[1,3,5,7,9,11,13,-1,-1,-1,-1,-1,-1,-1,-1],"loss_changes":[2.6550818E2,1.9330627E2,1.4573985E2,7.747908E1,1.6621352E2,4.727716E2,1.7737495E2,0E0,0E0,0E0,0E0,0E0,0E0,0E0,0E0],"parents":[2147483647,0,0,1,1,2,2,3,3,4,4,5,5,6,6],"right_children":[2,4,6,8,10,12,14,-1,-1,-1,-1,-1,-1,-1,-1],"split_conditions":[6.0168105E-1,-2.1605124E0,4.1884425E-1,1.2444252E0,9.278777E-1,-1.7741483E-2,-3.9089775E-1,-2.8802669E-2,2.6303183E-2,-2.3705326E-3,5.631305E-3,1.8598711E-3,2.6128106E-2,1.1661223E-2,-8.9438725E-3],"split_indices":[0,14,9,3,8,4,17,0,0,0,0,0,0,0,0],"split_type":[0,0,0,0,0,0,0,0,0,0,0,0,0,0,0],"sum_hessian":[2.652E3,2.114E3,5.38E2,3.4E1,2.08E3,3.62E2,1.76E2,3.2E1,2E0,1.777E3,3.03E2,2.43E2,1.19E2,6.6E1,1.1E2],"tree_param":{"num_deleted":"0","num_feature":"20","num_nodes":"15","size_leaf_vector":"1"}},{"base_weights":[1.331233E-4,-1.5795328E-1,6.204533E-1,-2.4653933E0,-1.1906891E-1,-7.728053E-1,8.1314236E-1,-3.6771987E-2,-6.0450616E-3,-1.3277237E-4,-8.632354E-3,-1.1453258E-2,4.00101E-2,8.5159644E-2,6.7944704E-3],"categories":[],"categories_nodes":[],"categories_segments":[],"categories_sizes":[],"default_left":[0,0,0,0,0,0,0,0,0,0,0,0,0,0,0],"id":7,"left_children":[1,3,5,7,9,11,13,-1,-1,-1,-1,-1,-1,-1,-1],"loss_changes":[2.6026227E2,1.8947128E2,1.4533142E2,7.670325E1,1.6381866E2,1.2195315E2,4.8235388E2,0E0,0E0,0E0,0E0,0E0,0E0,0E0,0E0],"parents":[2147483647,0,0,1,1,2,2,3,3,4,4,5,5,6,6],"right_children":[2,4,6,8,10,12,14,-1,-1,-1,-1,-1,-1,-1,-1],"split_conditions":[6.0168105E-1,-2.1605124E0,-9.541886E-1,2.6680726E-1,9.4636E-1,9.490972E-1,-9.103447E-1,-3.6771987E-2,-6.0450616E-3,-1.3277237E-4,-8.632354E-3,-1.1453258E-2,4.00101E-2,8.5159644E-2,6.7944704E-3],"split_indices":[0,14,13,3,10,15,13,0,0,0,0,0,0,0,0],"split_type":[0,0,0,0,0,0,0,0,0,0,0,0,0,0,0],"sum_hessian":[2.652E3,2.114E3,5.38E2,3.4E1,2.08E3,6.5E1,4.73E2,2E1,1.4E1,1.822E3,2.58E2,6.1E1,4E0,7E0,4.66E2],"tree_param":{"num_deleted":"0","num_feature":"20","num_nodes":"15","size_leaf_vector":"1"}},{"base_weights":[1.5758489E-4,-1.5639828E-1,6.1447203E-1,-2.4419627E0,-1.1788259E-1,5.746449E-1,7.538695E-2,-2.8278524E-2,2.6168128E-2,-2.3356646E-3,5.5910368E-3,3.7708553E-3,1.9787874E-2],"categories":[],"categories_nodes":[],"categories_segments":[],"categories_sizes":[],"default_left":[0,0,0,0,0,0,0,0,0,0,0,0,0],"id":8,"left_children":[1,3,5,7,9,11,-1,-1,-1,-1,-1,-1,-1],"loss_changes":[2.5524713E2,1.8589578E2,1.443088E2,7.572452E1,1.6310701E2,1.4821846E2,0E0,0E0,0E0,0E0,0E0,0E0,0E0],"parents":[2147483647,0,0,1,1,2,2,3,3,4,4,5,5],"right_children":[2,4,6,8,10,12,-1,-1,-1,-1,-1,-1,-1],"split_conditions":[6.0168105E-1,-2.1605124E0,3.5423758E0,1.2444252E0,9.278777E-1,1.1612833E0,7.538695E-2,-2.8278524E-2,2.6168128E-2,-2.3356646E-3,5.5910368E-3,3.7708553E-3,1.9787874E-2],"split_indices":[0,14,17,3,8,13,0,0,0,0,0,0,0],"split_type":[0,0,0,0,0,0,0,0,0,0,0,0,0],"sum_hessian":[2.652E3,2.114E3,5.38E2,3.4E1,2.08E3,5.36E2,2E0,3.2E1,2E0,1.777E3,3.03E2,4.71E2,6.5E1],"tree_param":{"num_deleted":"0","num_feature":"20","num_nodes":"13","size_leaf_vector":"1"}},{"base_weights":[1.9362645E-4,-1.548339E-1,6.085109E-1,-2.4176035E0,-1.1670234E-1,9.6786284E-1,-1.3190292E-1,-3.6152463E-2,-5.797302E-3,-4.5189927E-3,1.146565E-3,1.7421852E-3,2.5735406E-2,1.1397204E-2,-8.982711E-3],"categories":[],"categories_nodes":[],"categories_segments":[],"categories_sizes":[],"default_left":[0,0,0,0,0,0,0,0,0,0,0,0,0,0,0],"id":9,"left_children":[1,3,5,7,9,11,13,-1,-1,-1,-1,-1,-1,-1,-1],"loss_changes":[2.5028783E2,1.8220625E2,1.435389E2,7.494318E1,1.6143498E2,4.6213596E2,1.7351588E2,0E0,0E0,0E0,0E0,0E0,0E0,0E0,0E0],"parents":[2147483647,0,0,1,1,2,2,3,3,4,4,5,5,6,6],"right_children":[2,4,6,8,10,12,14,-1,-1,-1,-1,-1,-1,-1,-1],"split_conditions":[6.0168105E-1,-2.1605124E0,4.1884425E-1,2.6680726E-1,-2.099856E-1,-1.7741483E-2,-3.9089775E-1,-3.6152463E-2,-5.797302E-3,-4.5189927E-3,1.146565E-3,1.7421852E-3,2.5735406E-2,1.1397204E-2,-8.982711E-3],"split_indices":[0,14,9,3,4,4,17,0,0,0,0,0,0,0,0],"split_type":[0,0,0,0,0,0,0,0,0,0,0,0,0,0,0],"sum_hessian":[2.652E3,2.114E3,5.38E2,3.4E1,2.08E3,3.62E2,1.76E2,2E1,1.4E1,8.49E2,1.231E3,2.43E2,1.19E2,6.6E1,1.1E2],"tree_param":{"num_deleted":"0","num_feature":"20","num_nodes":"15","size_leaf_vector":"1"}},{"base_weights":[1.860959E-4,-1.5330666E-1,6.0248107E-1,-2.394626E0,-1.1553661E-1,5.629213E-1,7.482852E-2,-2.7764121E-2,2.6032325E-2,-1.07477215E-4,-8.526586E-3,3.6740468E-3,1.952632E-2],"categories":[],"categories_nodes":[],"categories_segments":[],"categories_sizes":[],"default_left":[0,0,0,0,0,0,0,0,0,0,0,0,0],"id":10,"left_children":[1,3,5,7,9,11,-1,-1,-1,-1,-1,-1,-1],"loss_changes":[2.4535666E2,1.7876811E2,1.4249596E2,7.401163E1,1.6073184E2,1.4519165E2,0E0,0E0,0E0,0E0,0E0,0E0,0E0],"parents":[2147483647,0,0,1,1,2,2,3,3,4,4,5,5],"right_children":[2,4,6,8,10,12,-1,-1,-1,-1,-1,-1,-1],"split_conditions":[6.0168105E-1,-2.1605124E0,3.5423758E0,1.2444252E0,9.4636E-1,1.1612833E0,7.482852E-2,-2.7764121E-2,2.6032325E-2,-1.07477215E-4,-8.526586E-3,3.6740468E-3,1.952632E-2],"split_indices":[0,14,17,3,10,13,0,0,0,0,0,0,0],"split_type":[0,0,0,0,0,0,0,0,0,0,0,0,0],"sum_hessian":[2.652E3,2.114E3,5.38E2,3.4E1,2.08E3,5.36E2,2E0,3.2E1,2E0,1.822E3,2.58E2,4.71E2,6.5E1],"tree_param":{"num_deleted":"0","num_feature":"20","num_nodes":"13","size_leaf_vector":"1"}},{"base_weights":[2.1741545E-4,-1.517782E-1,5.966377E-1,-2.710045E-1,5.433007E-1,-7.7964985E-1,7.8701395E-1,-2.8351864E-2,-2.2902908E-3,4.8982084E-4,1.9880932E-2,-1.1483524E-2,3.948192E-2,8.423792E-2,6.545059E-3],"categories":[],"categories_nodes":[],"categories_segments":[],"categories_sizes":[],"default_left":[0,0,0,0,0,0,0,0,0,0,0,0,0,0,0],"id":11,"left_children":[1,3,5,7,9,11,13,-1,-1,-1,-1,-1,-1,-1,-1],"loss_changes":[2.405937E2,1.7542084E2,1.4183829E2,1.937351E2,2.2130083E2,1.1958297E2,4.7414343E2,0E0,0E0,0E0,0E0,0E0,0E0,0E0,0E0],"parents":[2147483647,0,0,1,1,2,2,3,3,4,4,5,5,6,6],"right_children":[2,4,6,8,10,12,14,-1,-1,-1,-1,-1,-1,-1,-1],"split_conditions":[6.0168105E-1,9.278777E-1,-9.541886E-1,-2.1605124E0,6.383994E-1,9.490972E-1,-9.103447E-1,-2.8351864E-2,-2.2902908E-3,4.8982084E-4,1.9880932E-2,-1.1483524E-2,3.948192E-2,8.423792E-2,6.545059E-3],"split_indices":[0,8,13,14,4,15,13,0,0,0,0,0,0,0,0],"split_type":[0,0,0,0,0,0,0,0,0,0,0,0,0,0,0],"sum_hessian":[2.652E3,2.114E3,5.38E2,1.805E3,3.09E2,6.5E1,4.73E2,2.8E1,1.777E3,2.31E2,7.8E1,6.1E1,4E0,7E0,4.66E2],"tree_param":{"num_deleted":"0","num_feature":"20","num_nodes":"15","size_leaf_vector":"1"}},{"base_weights":[2.563824E-4,-7.414812E-2,1.1998472E0,-5.486788E-1,1.1597156E-1,4.145933E0,6.2845796E-1,-1.3822149E-2,-3.097544E-3,-6.8711773E-3,2.6965444E-3,-3.9558513E-3,7.742525E-2,1.2110664E-2,-7.769532E-3],"categories":[],"categories_nodes":[],"categories_segments":[],"categories_sizes":[],"default_left":[0,0,0,0,0,0,0,0,0,0,0,0,0,0,0],"id":12,"left_children":[1,3,5,7,9,11,13,-1,-1,-1,-1,-1,-1,-1,-1],"loss_changes":[2.3688239E2,2.2551747E2,2.5831555E2,1.4196565E2,2.2049194E2,4.114126E2,1.08204315E2,0E0,0E0,0E0,0E0,0E0,0E0,0E0,0E0],"parents":[2147483647,0,0,1,1,2,2,3,3,4,4,5,5,6,6],"right_children":[2,4,6,8,10,12,14,-1,-1,-1,-1,-1,-1,-1,-1],"split_conditions":[1.6108202E0,-5.613165E-1,-1.0396445E0,-6.3302225E-1,-8.739362E-1,-6.831324E-2,6.866597E-1,-1.3822149E-2,-3.097544E-3,-6.8711773E-3,2.6965444E-3,-3.9558513E-3,7.742525E-2,1.2110664E-2,-7.769532E-3],"split_indices":[1,14,12,16,0,4,4,0,0,0,0,0,0,0,0],"split_type":[0,0,0,0,0,0,0,0,0,0,0,0,0,0,0],"sum_hessian":[2.652E3,2.498E3,1.54E2,7.14E2,1.784E3,2.4E1,1.3E2,1.58E2,5.56E2,2.86E2,1.498E3,1.1E1,1.3E1,9.2E1,3.8E1],"tree_param":{"num_deleted":"0","num_feature":"20","num_nodes":"15","size_leaf_vector":"1"}},{"base_weights":[2.749713E-4,-1.493507E-1,5.873956E-1,-2.6722965E-1,5.37871E-1,5.48082E-1,7.428738E-2,-2.8011233E-2,-2.2575036E-3,4.854464E-4,1.9680714E-2,3.54496E-3,1.9242108E-2],"categories":[],"categories_nodes":[],"categories_segments":[],"categories_sizes":[],"default_left":[0,0,0,0,0,0,0,0,0,0,0,0,0],"id":13,"left_children":[1,3,5,7,9,11,-1,-1,-1,-1,-1,-1,-1],"loss_changes":[2.3314932E2,1.714777E2,1.4089682E2,1.891856E2,2.1685323E2,1.423743E2,0E0,0E0,0E0,0E0,0E0,0E0,0E0],"parents":[2147483647,0,0,1,1,2,2,3,3,4,4,5,5],"right_children":[2,4,6,8,10,12,-1,-1,-1,-1,-1,-1,-1],"split_conditions":[6.0168105E-1,9.278777E-1,3.5423758E0,-2.1605124E0,6.383994E-1,1.1612833E0,7.428738E-2,-2.8011233E-2,-2.2575036E-3,4.854464E-4,1.9680714E-2,3.54496E-3,1.9242108E-2],"split_indices":[0,8,17,14,4,13,0,0,0,0,0,0,0],"split_type":[0,0,0,0,0,0,0,0,0,0,0,0,0],"sum_hessian":[2.652E3,2.114E3,5.38E2,1.805E3,3.09E2,5.36E2,2E0,2.8E1,1.777E3,2.31E2,7.8E1,4.71E2,6.5E1],"tree_param":{"num_deleted":"0","num_feature":"20","num_nodes":"13","size_leaf_vector":"1"}},{"base_weights":[3.0491984E-4,-7.313203E-2,1.1842961E0,-5.4176617E-1,1.1462514E-1,4.104596E0,6.1794645E-1,-1.3660998E-2,-3.0548105E-3,1.4426787E-2,2.315847E-4,-3.9520836E-3,7.6683864E-2,1.1943095E-2,-7.723028E-3],"categories":[],"categories_nodes":[],"categories_segments":[],"categories_sizes":[],"default_left":[0,0,0,0,0,0,0,0,0,0,0,0,0,0,0],"id":14,"left_children":[1,3,5,7,9,11,13,-1,-1,-1,-1,-1,-1,-1,-1],"loss_changes":[2.3076152E2,2.1994766E2,2.5381978E2,1.3884879E2,2.1679526E2,4.039396E2,1.0589116E2,0E0,0E0,0E0,0E0,0E0,0E0,0E0,0E0],"parents":[2147483647,0,0,1,1,2,2,3,3,4,4,5,5,6,6],"right_children":[2,4,6,8,10,12,14,-1,-1,-1,-1,-1,-1,-1,-1],"split_conditions":[1.6108202E0,-5.613165E-1,-1.0396445E0,-6.3302225E-1,-4.2873764E-1,-6.831324E-2,6.866597E-1,-1.3660998E-2,-3.0548105E-3,1.4426787E-2,2.315847E-4,-3.9520836E-3,7.6683864E-2,1.1943095E-2,-7.723028E-3],"split_indices":[1,14,12,16,14,4,4,0,0,0,0,0,0,0,0],"split_type":[0,0,0,0,0,0,0,0,0,0,0,0,0,0,0],"sum_hessian":[2.652E3,2.498E3,1.54E2,7.14E2,1.784E3,2.4E1,1.3E2,1.58E2,5.56E2,1.14E2,1.67E3,1.1E1,1.3E1,9.2E1,3.8E1],"tree_param":{"num_deleted":"0","num_feature":"20","num_nodes":"15","size_leaf_vector":"1"}},{"base_weights":[3.299699E-4,-1.4716707E-1,5.7909787E-1,-2.6380402E-1,5.3281194E-1,9.340146E-1,-1.5205388E-1,-6.243212E-3,2.480066E-4,4.8241302E-4,1.9491103E-2,1.5279355E-3,2.514714E-2,1.1077984E-2,-9.111354E-3],"categories":[],"categories_nodes":[],"categories_segments":[],"categories_sizes":[],"default_left":[0,0,0,0,0,0,0,0,0,0,0,0,0,0,0],"id":15,"left_children":[1,3,5,7,9,11,13,-1,-1,-1,-1,-1,-1,-1,-1],"loss_changes":[2.2656268E2,1.6788263E2,1.4001143E2,1.8792427E2,2.1265793E2,4.478756E2,1.7027988E2,0E0,0E0,0E0,0E0,0E0,0E0,0E0,0E0],"parents":[2147483647,0,0,1,1,2,2,3,3,4,4,5,5,6,6],"right_children":[2,4,6,8,10,12,14,-1,-1,-1,-1,-1,-1,-1,-1],"split_conditions":[6.0168105E-1,9.278777E-1,4.1884425E-1,-1.4313002E-1,6.383994E-1,-1.7741483E-2,-3.9089775E-1,-6.243212E-3,2.480066E-4,4.8241302E-4,1.9491103E-2,1.5279355E-3,2.514714E-2,1.1077984E-2,-9.111354E-3],"split_indices":[0,8,9,9,4,4,17,0,0,0,0,0,0,0,0],"split_type":[0,0,0,0,0,0,0,0,0,0,0,0,0,0,0],"sum_hessian":[2.652E3,2.114E3,5.38E2,1.805E3,3.09E2,3.62E2,1.76E2,8.02E2,1.003E3,2.31E2,7.8E1,2.43E2,1.19E2,6.6E1,1.1E2],"tree_param":{"num_deleted":"0","num_feature":"20","num_nodes":"15","size_leaf_vector":"1"}},{"base_weights":[3.4260488E-4,-7.208531E-2,1.1680653E0,-5.355236E-1,1.1359E-1,4.056252E0,6.079682E-1,-1.3512008E-2,-3.017207E-3,-6.7713307E-3,2.6490681E-3,-3.9298614E-3,7.580152E-2,1.1795504E-2,-7.706243E-3],"categories":[],"categories_nodes":[],"categories_segments":[],"categories_sizes":[],"default_left":[0,0,0,0,0,0,0,0,0,0,0,0,0,0,0],"id":16,"left_children":[1,3,5,7,9,11,13,-1,-1,-1,-1,-1,-1,-1,-1],"loss_changes":[2.2446361E2,2.150974E2,2.4827205E2,1.359483E2,2.1375414E2,3.949457E2,1.0413423E2,0E0,0E0,0E0,0E0,0E0,0E0,0E0,0E0],"parents":[2147483647,0,0,1,1,2,2,3,3,4,4,5,5,6,6],"right_children":[2,4,6,8,10,12,14,-1,-1,-1,-1,-1,-1,-1,-1],"split_conditions":[1.6108202E0,-5.613165E-1,-1.0396445E0,-6.3302225E-1,-8.739362E-1,-6.831324E-2,6.866597E-1,-1.3512008E-2,-3.017207E-3,-6.7713307E-3,2.6490681E-3,-3.9298614E-3,7.580152E-2,1.1795504E-2,-7.706243E-3],"split_indices":[1,14,12,16,0,4,4,0,0,0,0,0,0,0,0],"split_type":[0,0,0,0,0,0,0,0,0,0,0,0,0,0,0],"sum_hessian":[2.652E3,2.498E3,1.54E2,7.14E2,1.784E3,2.4E1,1.3E2,1.58E2,5.56E2,2.86E2,1.498E3,1.1E1,1.3E1,9.2E1,3.8E1],"tree_param":{"num_deleted":"0","num_feature":"20","num_nodes":"15","size_leaf_vector":"1"}},{"base_weights":[3.599087E-4,-7.1372874E-2,1.1568751E0,-5.3019136E-1,1.1245155E-1,4.018564E0,6.019202E-1,-1.3377741E-2,-2.987087E-3,1.426931E-2,2.1920376E-4,-3.8938355E-3,7.509764E-2,1.16788205E-2,-7.6311533E-3],"categories":[],"categories_nodes":[],"categories_segments":[],"categories_sizes":[],"default_left":[0,0,0,0,0,0,0,0,0,0,0,0,0,0,0],"id":17,"left_children":[1,3,5,7,9,11,13,-1,-1,-1,-1,-1,-1,-1,-1],"loss_changes":[2.2017558E2,2.108304E2,2.4373796E2,1.332635E2,2.1238617E2,3.8764996E2,1.0209636E2,0E0,0E0,0E0,0E0,0E0,0E0,0E0,0E0],"parents":[2147483647,0,0,1,1,2,2,3,3,4,4,5,5,6,6],"right_children":[2,4,6,8,10,12,14,-1,-1,-1,-1,-1,-1,-1,-1],"split_conditions":[1.6108202E0,-5.613165E-1,-1.0396445E0,-6.3302225E-1,-4.2873764E-1,-6.831324E-2,6.866597E-1,-1.3377741E-2,-2.987087E-3,1.426931E-2,2.1920376E-4,-3.8938355E-3,7.509764E-2,1.16788205E-2,-7.6311533E-3],"split_indices":[1,14,12,16,14,4,4,0,0,0,0,0,0,0,0],"split_type":[0,0,0,0,0,0,0,0,0,0,0,0,0,0,0],"sum_hessian":[2.652E3,2.498E3,1.54E2,7.14E2,1.784E3,2.4E1,1.3E2,1.58E2,5.56E2,1.14E2,1.67E3,1.1E1,1.3E1,9.2E1,3.8E1],"tree_param":{"num_deleted":"0","num_feature":"20","num_nodes":"15","size_leaf_vector":"1"}},{"base_weights":[3.8389218E-4,-1.4411849E-1,5.674009E-1,-2.302862E0,-1.07741676E-1,5.283082E-1,7.3758535E-2,-3.4760848E-2,-5.068254E-3,-3.802959E-5,-8.389098E-3,3.3639302E-3,1.8927876E-2],"categories":[],"categories_nodes":[],"categories_segments":[],"categories_sizes":[],"default_left":[0,0,0,0,0,0,0,0,0,0,0,0,0],"id":18,"left_children":[1,3,5,7,9,11,-1,-1,-1,-1,-1,-1,-1],"loss_changes":[2.1745612E2,1.6583902E2,1.3956383E2,7.1988525E1,1.581459E2,1.3998439E2,0E0,0E0,0E0,0E0,0E0,0E0,0E0],"parents":[2147483647,0,0,1,1,2,2,3,3,4,4,5,5],"right_children":[2,4,6,8,10,12,-1,-1,-1,-1,-1,-1,-1],"split_conditions":[6.0168105E-1,-2.1605124E0,3.5423758E0,2.6680726E-1,9.4636E-1,1.1612833E0,7.3758535E-2,-3.4760848E-2,-5.068254E-3,-3.802959E-5,-8.389098E-3,3.3639302E-3,1.8927876E-2],"split_indices":[0,14,17,3,10,13,0,0,0,0,0,0,0],"split_type":[0,0,0,0,0,0,0,0,0,0,0,0,0],"sum_hessian":[2.652E3,2.114E3,5.38E2,3.4E1,2.08E3,5.36E2,2E0,2E1,1.4E1,1.822E3,2.58E2,4.71E2,6.5E1],"tree_param":{"num_deleted":"0","num_feature":"20","num_nodes":"13","size_leaf_vector":"1"}},{"base_weights":[3.982444E-4,-7.039073E-2,1.1416967E0,-5.2341074E-1,1.1111049E-1,3.9784057E0,5.9162474E-1,-1.3229381E-2,-2.9423966E-3,-6.7028063E-3,2.6064226E-3,-3.888975E-3,7.437637E-2,1.1516417E-2,-7.589702E-3],"categories":[],"categories_nodes":[],"categories_segments":[],"categories_sizes":[],"default_left":[0,0,0,0,0,0,0,0,0,0,0,0,0,0,0],"id":19,"left_children":[1,3,5,7,9,11,13,-1,-1,-1,-1,-1,-1,-1,-1],"loss_changes":[2.1441982E2,2.0553513E2,2.3950735E2,1.3061914E2,2.0873909E2,3.805802E2,9.995671E1,0E0,0E0,0E0,0E0,0E0,0E0,0E0,0E0],"parents":[2147483647,0,0,1,1,2,2,3,3,4,4,5,5,6,6],"right_children":[2,4,6,8,10,12,14,-1,-1,-1,-1,-1,-1,-1,-1],"split_conditions":[1.6108202E0,-5.613165E-1,-1.0396445E0,-6.3302225E-1,-8.739362E-1,-6.831324E-2,6.866597E-1,-1.3229381E-2,-2.9423966E-3,-6.7028063E-3,2.6064226E-3,-3.888975E-3,7.437637E-2,1.1516417E-2,-7.589702E-3],"split_indices":[1,14,12,16,0,4,4,0,0,0,0,0,0,0,0],"split_type":[0,0,0,0,0,0,0,0,0,0,0,0,0,0,0],"sum_hessian":[2.652E3,2.498E3,1.54E2,7.14E2,1.784E3,2.4E1,1.3E2,1.58E2,5.56E2,2.86E2,1.498E3,1.1E1,1.3E1,9.2E1,3.8E1],"tree_param":{"num_deleted":"0","num_feature":"20","num_nodes":"15","size_leaf_vector":"1"}},{"base_weights":[4.1457152E-4,-1.4182684E-1,5.585596E-1,-2.5696188E-1,5.2938515E-1,5.197081E-1,7.326793E-2,-6.1281207E-3,2.790334E-4,4.980838E-4,1.9310614E-2,3.2958323E-3,1.8715143E-2],"categories":[],"categories_nodes":[],"categories_segments":[],"categories_sizes":[],"default_left":[0,0,0,0,0,0,0,0,0,0,0,0,0],"id":20,"left_children":[1,3,5,7,9,11,-1,-1,-1,-1,-1,-1,-1],"loss_changes":[2.1070442E2,1.6358328E2,1.3792555E2,1.8309015E2,2.0828934E2,1.373986E2,0E0,0E0,0E0,0E0,0E0,0E0,0E0],"parents":[2147483647,0,0,1,1,2,2,3,3,4,4,5,5],"right_children":[2,4,6,8,10,12,-1,-1,-1,-1,-1,-1,-1],"split_conditions":[6.0168105E-1,9.278777E-1,3.5423758E0,-1.4313002E-1,6.383994E-1,1.1612833E0,7.326793E-2,-6.1281207E-3,2.790334E-4,4.980838E-4,1.9310614E-2,3.2958323E-3,1.8715143E-2],"split_indices":[0,8,17,9,4,13,0,0,0,0,0,0,0],"split_type":[0,0,0,0,0,0,0,0,0,0,0,0,0],"sum_hessian":[2.652E3,2.114E3,5.38E2,1.805E3,3.09E2,5.36E2,2E0,8.02E2,1.003E3,2.31E2,7.8E1,4.71E2,6.5E1],"tree_param":{"num_deleted":"0","num_feature":"20","num_nodes":"13","size_leaf_vector":"1"}},{"base_weights":[4.5151645E-4,-6.941688E-2,1.1269075E0,-5.1751965E-1,1.1011415E-1,3.9386306E0,5.817167E-1,-1.3083646E-2,-2.9083763E-3,1.411253E-2,2.0502479E-4,-3.8835374E-3,7.366143E-2,1.1356261E-2,-7.540599E-3],"categories":[],"categories_nodes":[],"categories_segments":[],"categories_sizes":[],"default_left":[0,0,0,0,0,0,0,0,0,0,0,0,0,0,0],"id":21,"left_children":[1,3,5,7,9,11,13,-1,-1,-1,-1,-1,-1,-1,-1],"loss_changes":[2.0887907E2,2.0109741E2,2.3531227E2,1.2779773E2,2.080971E2,3.7363052E2,9.778312E1,0E0,0E0,0E0,0E0,0E0,0E0,0E0,0E0],"parents":[2147483647,0,0,1,1,2,2,3,3,4,4,5,5,6,6],"right_children":[2,4,6,8,10,12,14,-1,-1,-1,-1,-1,-1,-1,-1],"split_conditions":[1.6108202E0,-5.613165E-1,-1.0396445E0,-6.3302225E-1,-4.2873764E-1,-6.831324E-2,6.866597E-1,-1.3083646E-2,-2.9083763E-3,1.411253E-2,2.0502479E-4,-3.8835374E-3,7.366143E-2,1.1356261E-2,-7.540599E-3],"split_indices":[1,14,12,16,14,4,4,0,0,0,0,0,0,0,0],"split_type":[0,0,0,0,0,0,0,0,0,0,0,0,0,0,0],"sum_hessian":[2.652E3,2.498E3,1.54E2,7.14E2,1.784E3,2.4E1,1.3E2,1.58E2,5.56E2,1.14E2,1.67E3,1.1E1,1.3E1,9.2E1,3.8E1],"tree_param":{"num_deleted":"0","num_feature":"20","num_nodes":"15","size_leaf_vector":"1"}},{"base_weights":[4.7415873E-4,-6.872332E-2,1.1161131E0,-5.123666E-1,1.09021015E-1,3.902035E0,5.759286E-1,-1.2953634E-2,-2.8793414E-3,1.39726335E-2,2.0297563E-4,-3.84794E-3,7.297743E-2,1.1243918E-2,-7.4671255E-3],"categories":[],"categories_nodes":[],"categories_segments":[],"categories_sizes":[],"default_left":[0,0,0,0,0,0,0,0,0,0,0,0,0,0,0],"id":22,"left_children":[1,3,5,7,9,11,13,-1,-1,-1,-1,-1,-1,-1,-1],"loss_changes":[2.0488673E2,1.9711469E2,2.31014E2,1.25273895E2,2.0399234E2,3.667286E2,9.586963E1,0E0,0E0,0E0,0E0,0E0,0E0,0E0,0E0],"parents":[2147483647,0,0,1,1,2,2,3,3,4,4,5,5,6,6],"right_children":[2,4,6,8,10,12,14,-1,-1,-1,-1,-1,-1,-1,-1],"split_conditions":[1.6108202E0,-5.613165E-1,-1.0396445E0,-6.3302225E-1,-4.2873764E-1,-6.831324E-2,6.866597E-1,-1.2953634E-2,-2.8793414E-3,1.39726335E-2,2.0297563E-4,-3.84794E-3,7.297743E-2,1.1243918E-2,-7.4671255E-3],"split_indices":[1,14,12,16,14,4,4,0,0,0,0,0,0,0,0],"split_type":[0,0,0,0,0,0,0,0,0,0,0,0,0,0,0],"sum_hessian":[2.652E3,2.498E3,1.54E2,7.14E2,1.784E3,2.4E1,1.3E2,1.58E2,5.56E2,1.14E2,1.67E3,1.1E1,1.3E1,9.2E1,3.8E1],"tree_param":{"num_deleted":"0","num_feature":"20","num_nodes":"15","size_leaf_vector":"1"}},{"base_weights":[4.961608E-4,-1.3908832E-1,5.4821545E-1,-2.2610018E0,-1.0333337E-1,5.0958824E-1,7.279741E-2,-2.6344556E-2,2.6006583E-2,-2.9546534E-6,-8.2817795E-3,3.211057E-3,1.8498028E-2],"categories":[],"categories_nodes":[],"categories_segments":[],"categories_sizes":[],"default_left":[0,0,0,0,0,0,0,0,0,0,0,0,0],"id":23,"left_children":[1,3,5,7,9,11,-1,-1,-1,-1,-1,-1,-1],"loss_changes":[2.0290636E2,1.6022914E2,1.3644104E2,7.039752E1,1.5542229E2,1.35056E2,0E0,0E0,0E0,0E0,0E0,0E0,0E0],"parents":[2147483647,0,0,1,1,2,2,3,3,4,4,5,5],"right_children":[2,4,6,8,10,12,-1,-1,-1,-1,-1,-1,-1],"split_conditions":[6.0168105E-1,-2.1605124E0,3.5423758E0,1.2444252E0,9.4636E-1,1.1612833E0,7.279741E-2,-2.6344556E-2,2.6006583E-2,-2.9546534E-6,-8.2817795E-3,3.211057E-3,1.8498028E-2],"split_indices":[0,14,17,3,10,13,0,0,0,0,0,0,0],"split_type":[0,0,0,0,0,0,0,0,0,0,0,0,0],"sum_hessian":[2.652E3,2.114E3,5.38E2,3.4E1,2.08E3,5.36E2,2E0,3.2E1,2E0,1.822E3,2.58E2,4.71E2,6.5E1],"tree_param":{"num_deleted":"0","num_feature":"20","num_nodes":"13","size_leaf_vector":"1"}},{"base_weights":[5.23496E-4,-6.776327E-2,1.101479E0,-5.057449E-1,1.0771271E-1,3.8630831E0,5.660471E-1,-1.28135495E-2,-2.8343291E-3,-6.6206544E-3,2.5502332E-3,-3.8421E-3,7.227686E-2,1.1087513E-2,-7.4260775E-3],"categories":[],"categories_nodes":[],"categories_segments":[],"categories_sizes":[],"default_left":[0,0,0,0,0,0,0,0,0,0,0,0,0,0,0],"id":24,"left_children":[1,3,5,7,9,11,13,-1,-1,-1,-1,-1,-1,-1,-1],"loss_changes":[1.9952899E2,1.9211575E2,2.2700426E2,1.2292239E2,2.0258157E2,3.6003827E2,9.386119E1,0E0,0E0,0E0,0E0,0E0,0E0,0E0,0E0],"parents":[2147483647,0,0,1,1,2,2,3,3,4,4,5,5,6,6],"right_children":[2,4,6,8,10,12,14,-1,-1,-1,-1,-1,-1,-1,-1],"split_conditions":[1.6108202E0,-5.613165E-1,-1.0396445E0,-6.3302225E-1,-8.739362E-1,-6.831324E-2,6.866597E-1,-1.28135495E-2,-2.8343291E-3,-6.6206544E-3,2.5502332E-3,-3.8421E-3,7.227686E-2,1.1087513E-2,-7.4260775E-3],"split_indices":[1,14,12,16,0,4,4,0,0,0,0,0,0,0,0],"split_type":[0,0,0,0,0,0,0,0,0,0,0,0,0,0,0],"sum_hessian":[2.652E3,2.498E3,1.54E2,7.14E2,1.784E3,2.4E1,1.3E2,1.58E2,5.56E2,2.86E2,1.498E3,1.1E1,1.3E1,9.2E1,3.8E1],"tree_param":{"num_deleted":"0","num_feature":"20","num_nodes":"15","size_leaf_vector":"1"}},{"base_weights":[5.3803984E-4,-1.2076875E-1,6.142716E-1,-1.3735002E-1,5.1314273E0,-2.112101E-1,1.4559429E0,-2.3284415E-2,-9.999595E-4,3.9627855E-3,1.1312866E-1,-1.7799746E-2,4.496158E-3,2.2626206E-2,1.8168932E-4],"categories":[],"categories_nodes":[],"categories_segments":[],"categories_sizes":[],"default_left":[0,0,0,0,0,0,0,0,0,0,0,0,0,0,0],"id":25,"left_children":[1,3,5,7,9,11,13,-1,-1,-1,-1,-1,-1,-1,-1],"loss_changes":[1.9759016E2,1.9369199E2,3.04623E2,1.806472E2,2.004072E2,2.3094333E2,2.5163986E2,0E0,0E0,0E0,0E0,0E0,0E0,0E0,0E0],"parents":[2147483647,0,0,1,1,2,2,3,3,4,4,5,5,6,6],"right_children":[2,4,6,8,10,12,14,-1,-1,-1,-1,-1,-1,-1,-1],"split_conditions":[9.341576E-1,2.828618E0,-3.3227317E-2,-2.1605124E0,1.451691E0,-6.976439E-1,2.8717348E-1,-2.3284415E-2,-9.999595E-4,3.9627855E-3,1.1312866E-1,-1.7799746E-2,4.496158E-3,2.2626206E-2,1.8168932E-4],"split_indices":[3,7,4,14,0,13,11,0,0,0,0,0,0,0,0],"split_type":[0,0,0,0,0,0,0,0,0,0,0,0,0,0,0],"sum_hessian":[2.652E3,2.215E3,4.37E2,2.209E3,6E0,2.21E2,2.16E2,3.6E1,2.173E3,4E0,2E0,6.5E1,1.56E2,1.38E2,7.8E1],"tree_param":{"num_deleted":"0","num_feature":"20","num_nodes":"15","size_leaf_vector":"1"}},{"base_weights":[5.715525E-4,-1.3658336E-1,5.387572E-1,-2.4984801E-1,5.2371514E-1,5.0037414E-1,7.229745E-2,-6.0068294E-3,3.0998932E-4,4.9866684E-4,1.9086407E-2,3.1392702E-3,1.8261718E-2],"categories":[],"categories_nodes":[],"categories_segments":[],"categories_sizes":[],"default_left":[0,0,0,0,0,0,0,0,0,0,0,0,0],"id":26,"left_children":[1,3,5,7,9,11,-1,-1,-1,-1,-1,-1,-1],"loss_changes":[1.9590427E2,1.5830847E2,1.3480882E2,1.7796548E2,2.0334073E2,1.3216835E2,0E0,0E0,0E0,0E0,0E0,0E0,0E0],"parents":[2147483647,0,0,1,1,2,2,3,3,4,4,5,5],"right_children":[2,4,6,8,10,12,-1,-1,-1,-1,-1,-1,-1],"split_conditions":[6.0168105E-1,9.278777E-1,3.5423758E0,-1.4313002E-1,6.383994E-1,1.1612833E0,7.229745E-2,-6.0068294E-3,3.0998932E-4,4.9866684E-4,1.9086407E-2,3.1392702E-3,1.8261718E-2],"split_indices":[0,8,17,9,4,13,0,0,0,0,0,0,0],"split_type":[0,0,0,0,0,0,0,0,0,0,0,0,0],"sum_hessian":[2.652E3,2.114E3,5.38E2,1.805E3,3.09E2,5.36E2,2E0,8.02E2,1.003E3,2.31E2,7.8E1,4.71E2,6.5E1],"tree_param":{"num_deleted":"0","num_feature":"20","num_nodes":"13","size_leaf_vector":"1"}},{"base_weights":[6.0644845E-4,-6.664278E-2,1.0848336E0,-4.9828342E-1,1.0629263E-1,3.8159046E0,5.553557E-1,-1.09716505E-2,-2.1383676E-3,1.3821434E-2,1.8423604E-4,-3.812488E-3,7.1409E-2,1.09152235E-2,-7.374353E-3],"categories":[],"categories_nodes":[],"categories_segments":[],"categories_sizes":[],"default_left":[0,0,0,0,0,0,0,0,0,0,0,0,0,0,0],"id":27,"left_children":[1,3,5,7,9,11,13,-1,-1,-1,-1,-1,-1,-1,-1],"loss_changes":[1.9351167E2,1.865932E2,2.220173E2,1.2156557E2,2.000869E2,3.5161038E2,9.160776E1,0E0,0E0,0E0,0E0,0E0,0E0,0E0,0E0],"parents":[2147483647,0,0,1,1,2,2,3,3,4,4,5,5,6,6],"right_children":[2,4,6,8,10,12,14,-1,-1,-1,-1,-1,-1,-1,-1],"split_conditions":[1.6108202E0,-5.613165E-1,-1.0396445E0,-5.915611E-1,-4.2873764E-1,-6.831324E-2,6.866597E-1,-1.09716505E-2,-2.1383676E-3,1.3821434E-2,1.8423604E-4,-3.812488E-3,7.1409E-2,1.09152235E-2,-7.374353E-3],"split_indices":[1,14,12,2,14,4,4,0,0,0,0,0,0,0,0],"split_type":[0,0,0,0,0,0,0,0,0,0,0,0,0,0,0],"sum_hessian":[2.652E3,2.498E3,1.54E2,7.14E2,1.784E3,2.4E1,1.3E2,2.29E2,4.85E2,1.14E2,1.67E3,1.1E1,1.3E1,9.2E1,3.8E1],"tree_param":{"num_deleted":"0","num_feature":"20","num_nodes":"15","size_leaf_vector":"1"}},{"base_weights":[6.276514E-4,-1.1860606E-1,6.038726E-1,-1.3500297E-1,5.075075E0,-2.1088965E-1,1.4346253E0,-2.298393E-2,-9.812143E-4,3.8338166E-3,1.1202872E-1,-1.7620288E-2,4.425248E-3,2.232963E-2,1.1795068E-4],"categories":[],"categories_nodes":[],"categories_segments":[],"categories_sizes":[],"default_left":[0,0,0,0,0,0,0,0,0,0,0,0,0,0,0],"id":28,"left_children":[1,3,5,7,9,11,13,-1,-1,-1,-1,-1,-1,-1,-1],"loss_changes":[1.9089432E2,1.8940038E2,2.9676978E2,1.7610844E2,1.9695325E2,2.257849E2,2.4646387E2,0E0,0E0,0E0,0E0,0E0,0E0,0E0,0E0],"parents":[2147483647,0,0,1,1,2,2,3,3,4,4,5,5,6,6],"right_children":[2,4,6,8,10,12,14,-1,-1,-1,-1,-1,-1,-1,-1],"split_conditions":[9.341576E-1,2.828618E0,-3.3227317E-2,-2.1605124E0,1.451691E0,-6.976439E-1,2.8717348E-1,-2.298393E-2,-9.812143E-4,3.8338166E-3,1.1202872E-1,-1.7620288E-2,4.425248E-3,2.232963E-2,1.1795068E-4],"split_indices":[3,7,4,14,0,13,11,0,0,0,0,0,0,0,0],"split_type":[0,0,0,0,0,0,0,0,0,0,0,0,0,0,0],"sum_hessian":[2.652E3,2.215E3,4.37E2,2.209E3,6E0,2.21E2,2.16E2,3.6E1,2.173E3,4E0,2E0,6.5E1,1.56E2,1.38E2,7.8E1],"tree_param":{"num_deleted":"0","num_feature":"20","num_nodes":"15","size_leaf_vector":"1"}},{"base_weights":[6.596033E-4,-1.3426131E-1,5.3007907E-1,-4.5825717E-1,9.118954E-2,4.9193773E-1,7.180683E-2,-2.5648063E-3,-1.2173903E-2,-4.064619E-4,1.2759269E-2,3.0738045E-3,1.804348E-2],"categories":[],"categories_nodes":[],"categories_segments":[],"categories_sizes":[],"default_left":[0,0,0,0,0,0,0,0,0,0,0,0,0],"id":29,"left_children":[1,3,5,7,9,11,-1,-1,-1,-1,-1,-1,-1],"loss_changes":[1.895743E2,1.5453226E2,1.3319183E2,1.3264388E2,1.9497789E2,1.2951476E2,0E0,0E0,0E0,0E0,0E0,0E0,0E0],"parents":[2147483647,0,0,1,1,2,2,3,3,4,4,5,5],"right_children":[2,4,6,8,10,12,-1,-1,-1,-1,-1,-1,-1],"split_conditions":[6.0168105E-1,-2.099856E-1,3.5423758E0,6.673657E-1,1.1180428E0,1.1612833E0,7.180683E-2,-2.5648063E-3,-1.2173903E-2,-4.064619E-4,1.2759269E-2,3.0738045E-3,1.804348E-2],"split_indices":[0,4,17,11,2,13,0,0,0,0,0,0,0],"split_type":[0,0,0,0,0,0,0,0,0,0,0,0,0],"sum_hessian":[2.652E3,2.114E3,5.38E2,8.67E2,1.247E3,5.36E2,2E0,6.86E2,1.81E2,1.123E3,1.24E2,4.71E2,6.5E1],"tree_param":{"num_deleted":"0","num_feature":"20","num_nodes":"13","size_leaf_vector":"1"}},{"base_weights":[6.869622E-4,-6.553693E-2,1.0683825E0,-4.9072313E-1,1.04812466E-1,3.7688825E0,5.4486436E-1,-1.2549732E-2,-2.7168097E-3,-8.224515E-3,2.236563E-3,-3.7828516E-3,7.0543915E-2,1.0748452E-2,-7.32907E-3],"categories":[],"categories_nodes":[],"categories_segments":[],"categories_sizes":[],"default_left":[0,0,0,0,0,0,0,0,0,0,0,0,0,0,0],"id":30,"left_children":[1,3,5,7,9,11,13,-1,-1,-1,-1,-1,-1,-1,-1],"loss_changes":[1.8765558E2,1.8105452E2,2.1707938E2,1.1935217E2,1.9689023E2,3.433075E2,8.950023E1,0E0,0E0,0E0,0E0,0E0,0E0,0E0,0E0],"parents":[2147483647,0,0,1,1,2,2,3,3,4,4,5,5,6,6],"right_children":[2,4,6,8,10,12,14,-1,-1,-1,-1,-1,-1,-1,-1],"split_conditions":[1.6108202E0,-5.613165E-1,-1.0396445E0,-6.3302225E-1,-1.0853119E0,-6.831324E-2,6.866597E-1,-1.2549732E-2,-2.7168097E-3,-8.224515E-3,2.236563E-3,-3.7828516E-3,7.0543915E-2,1.0748452E-2,-7.32907E-3],"split_indices":[1,14,12,16,0,4,4,0,0,0,0,0,0,0,0],"split_type":[0,0,0,0,0,0,0,0,0,0,0,0,0,0,0],"sum_hessian":[2.652E3,2.498E3,1.54E2,7.14E2,1.784E3,2.4E1,1.3E2,1.58E2,5.56E2,2.02E2,1.582E3,1.1E1,1.3E1,9.2E1,3.8E1],"tree_param":{"num_deleted":"0","num_feature":"20","num_nodes":"15","size_leaf_vector":"1"}},{"base_weights":[6.986565E-4,-1.1652149E-1,5.937561E-1,-1.327548E-1,5.025211E0,-2.0888978E-1,1.4121599E0,-2.268077E-2,-9.6352E-4,3.7886505E-3,1.1094049E-1,-1.7405927E-2,4.3634134E-3,2.20161E-2,5.251945E-5],"categories":[],"categories_nodes":[],"categories_segments":[],"categories_sizes":[],"default_left":[0,0,0,0,0,0,0,0,0,0,0,0,0,0,0],"id":31,"left_children":[1,3,5,7,9,11,13,-1,-1,-1,-1,-1,-1,-1,-1],"loss_changes":[1.8450117E2,1.8563068E2,2.8801215E2,1.7156853E2,1.9318228E2,2.2016266E2,2.410068E2,0E0,0E0,0E0,0E0,0E0,0E0,0E0,0E0],"parents":[2147483647,0,0,1,1,2,2,3,3,4,4,5,5,6,6],"right_children":[2,4,6,8,10,12,14,-1,-1,-1,-1,-1,-1,-1,-1],"split_conditions":[9.341576E-1,2.828618E0,-3.3227317E-2,-2.1605124E0,1.451691E0,-6.976439E-1,2.8717348E-1,-2.268077E-2,-9.6352E-4,3.7886505E-3,1.1094049E-1,-1.7405927E-2,4.3634134E-3,2.20161E-2,5.251945E-5],"split_indices":[3,7,4,14,0,13,11,0,0,0,0,0,0,0,0],"split_type":[0,0,0,0,0,0,0,0,0,0,0,0,0,0,0],"sum_hessian":[2.652E3,2.215E3,4.37E2,2.209E3,6E0,2.21E2,2.16E2,3.6E1,2.173E3,4E0,2E0,6.5E1,1.56E2,1.38E2,7.8E1],"tree_param":{"num_deleted":"0","num_feature":"20","num_nodes":"15","size_leaf_vector":"1"}},{"base_weights":[7.2914746E-4,-6.4711995E-2,1.0558046E0,-4.841153E-1,1.0332054E-1,3.725455E0,5.382697E-1,-1.0749963E-2,-2.0348413E-3,1.3676985E-2,1.6242867E-4,-3.7256407E-3,6.971939E-2,1.0624367E-2,-7.2546876E-3],"categories":[],"categories_nodes":[],"categories_segments":[],"categories_sizes":[],"default_left":[0,0,0,0,0,0,0,0,0,0,0,0,0,0,0],"id":32,"left_children":[1,3,5,7,9,11,13,-1,-1,-1,-1,-1,-1,-1,-1],"loss_changes":[1.8324562E2,1.7616306E2,2.121485E2,1.183423E2,1.9650468E2,3.3520135E2,8.754648E1,0E0,0E0,0E0,0E0,0E0,0E0,0E0,0E0],"parents":[2147483647,0,0,1,1,2,2,3,3,4,4,5,5,6,6],"right_children":[2,4,6,8,10,12,14,-1,-1,-1,-1,-1,-1,-1,-1],"split_conditions":[1.6108202E0,-5.613165E-1,-1.0396445E0,-5.915611E-1,-4.2873764E-1,-6.831324E-2,6.866597E-1,-1.0749963E-2,-2.0348413E-3,1.3676985E-2,1.6242867E-4,-3.7256407E-3,6.971939E-2,1.0624367E-2,-7.2546876E-3],"split_indices":[1,14,12,2,14,4,4,0,0,0,0,0,0,0,0],"split_type":[0,0,0,0,0,0,0,0,0,0,0,0,0,0,0],"sum_hessian":[2.652E3,2.498E3,1.54E2,7.14E2,1.784E3,2.4E1,1.3E2,2.29E2,4.85E2,1.14E2,1.67E3,1.1E1,1.3E1,9.2E1,3.8E1],"tree_param":{"num_deleted":"0","num_feature":"20","num_nodes":"15","size_leaf_vector":"1"}},{"base_weights":[7.4866344E-4,-1.3121401E-1,5.1855993E-1,-2.4177736E-1,5.1333004E-1,4.80647E-1,7.132125E-2,-5.8666826E-3,3.4307456E-4,1.0538136E-2,-6.666325E-3,8.203865E-3,-2.2086643E-3],"categories":[],"categories_nodes":[],"categories_segments":[],"categories_sizes":[],"default_left":[0,0,0,0,0,0,0,0,0,0,0,0,0],"id":33,"left_children":[1,3,5,7,9,11,-1,-1,-1,-1,-1,-1,-1],"loss_changes":[1.813522E2,1.5084526E2,1.317207E2,1.7198589E2,1.9840512E2,1.281654E2,0E0,0E0,0E0,0E0,0E0,0E0,0E0],"parents":[2147483647,0,0,1,1,2,2,3,3,4,4,5,5],"right_children":[2,4,6,8,10,12,-1,-1,-1,-1,-1,-1,-1],"split_conditions":[6.0168105E-1,9.278777E-1,3.5423758E0,-1.4313002E-1,3.717737E-1,4.1884425E-1,7.132125E-2,-5.8666826E-3,3.4307456E-4,1.0538136E-2,-6.666325E-3,8.203865E-3,-2.2086643E-3],"split_indices":[0,8,17,9,13,9,0,0,0,0,0,0,0],"split_type":[0,0,0,0,0,0,0,0,0,0,0,0,0],"sum_hessian":[2.652E3,2.114E3,5.38E2,1.805E3,3.09E2,5.36E2,2E0,8.02E2,1.003E3,2.12E2,9.7E1,3.61E2,1.75E2],"tree_param":{"num_deleted":"0","num_feature":"20","num_nodes":"13","size_leaf_vector":"1"}},{"base_weights":[7.697493E-4,-6.376994E-2,1.041311E0,-4.7860172E-1,1.024309E-1,3.683917E0,5.2904797E-1,-1.0282645E-2,-1.8087275E-3,1.3537727E-2,1.6250927E-4,-3.7666846E-3,6.901281E-2,-1.4532588E-2,8.576743E-3],"categories":[],"categories_nodes":[],"categories_segments":[],"categories_sizes":[],"default_left":[0,0,0,0,0,0,0,0,0,0,0,0,0,0,0],"id":34,"left_children":[1,3,5,7,9,11,13,-1,-1,-1,-1,-1,-1,-1,-1],"loss_changes":[1.7823181E2,1.7234355E2,2.0787602E2,1.1682416E2,1.9247348E2,3.292091E2,8.6584854E1,0E0,0E0,0E0,0E0,0E0,0E0,0E0,0E0],"parents":[2147483647,0,0,1,1,2,2,3,3,4,4,5,5,6,6],"right_children":[2,4,6,8,10,12,14,-1,-1,-1,-1,-1,-1,-1,-1],"split_conditions":[1.6108202E0,-5.613165E-1,-1.0396445E0,-3.204681E-1,-4.2873764E-1,-6.831324E-2,-4.694818E-1,-1.0282645E-2,-1.8087275E-3,1.3537727E-2,1.6250927E-4,-3.7666846E-3,6.901281E-2,-1.4532588E-2,8.576743E-3],"split_indices":[1,14,12,16,14,4,12,0,0,0,0,0,0,0,0],"split_type":[0,0,0,0,0,0,0,0,0,0,0,0,0,0,0],"sum_hessian":[2.652E3,2.498E3,1.54E2,7.14E2,1.784E3,2.4E1,1.3E2,2.5E2,4.64E2,1.14E2,1.67E3,1.1E1,1.3E1,1.8E1,1.12E2],"tree_param":{"num_deleted":"0","num_feature":"20","num_nodes":"15","size_leaf_vector":"1"}},{"base_weights":[7.853391E-4,-1.14049636E-1,5.817751E-1,-1.3007997E-1,4.9632487E0,-2.1149981E-1,1.3906473E0,-2.2339892E-2,-9.4213034E-4,3.6928025E-3,1.09654464E-1,-1.7248405E-2,4.2602876E-3,2.170006E-2,1.7673276E-5],"categories":[],"categories_nodes":[],"categories_segments":[],"categories_sizes":[],"default_left":[0,0,0,0,0,0,0,0,0,0,0,0,0,0,0],"id":35,"left_children":[1,3,5,7,9,11,13,-1,-1,-1,-1,-1,-1,-1,-1],"loss_changes":[1.7706908E2,1.810076E2,2.8134033E2,1.6655786E2,1.8896805E2,2.1491995E2,2.3488474E2,0E0,0E0,0E0,0E0,0E0,0E0,0E0,0E0],"parents":[2147483647,0,0,1,1,2,2,3,3,4,4,5,5,6,6],"right_children":[2,4,6,8,10,12,14,-1,-1,-1,-1,-1,-1,-1,-1],"split_conditions":[9.341576E-1,2.828618E0,-3.3227317E-2,-2.1605124E0,1.451691E0,-6.976439E-1,2.8717348E-1,-2.2339892E-2,-9.4213034E-4,3.6928025E-3,1.09654464E-1,-1.7248405E-2,4.2602876E-3,2.170006E-2,1.7673276E-5],"split_indices":[3,7,4,14,0,13,11,0,0,0,0,0,0,0,0],"split_type":[0,0,0,0,0,0,0,0,0,0,0,0,0,0,0],"sum_hessian":[2.652E3,2.215E3,4.37E2,2.209E3,6E0,2.21E2,2.16E2,3.6E1,2.173E3,4E0,2E0,6.5E1,1.56E2,1.38E2,7.8E1],"tree_param":{"num_deleted":"0","num_feature":"20","num_nodes":"15","size_leaf_vector":"1"}},{"base_weights":[8.148078E-4,-1.290566E-1,5.104201E-1,-4.4538745E-1,9.105895E-2,4.7274733E-1,7.0837E-2,-2.455004E-3,-1.1974588E-2,-3.7086962E-4,1.2426185E-2,2.901102E-3,1.7717166E-2],"categories":[],"categories_nodes":[],"categories_segments":[],"categories_sizes":[],"default_left":[0,0,0,0,0,0,0,0,0,0,0,0,0],"id":36,"left_children":[1,3,5,7,9,11,-1,-1,-1,-1,-1,-1,-1],"loss_changes":[1.7564978E2,1.4730661E2,1.3012561E2,1.3019185E2,1.8421051E2,1.2688391E2,0E0,0E0,0E0,0E0,0E0,0E0,0E0],"parents":[2147483647,0,0,1,1,2,2,3,3,4,4,5,5],"right_children":[2,4,6,8,10,12,-1,-1,-1,-1,-1,-1,-1],"split_conditions":[6.0168105E-1,-2.099856E-1,3.5423758E0,6.673657E-1,1.1180428E0,1.1612833E0,7.0837E-2,-2.455004E-3,-1.1974588E-2,-3.7086962E-4,1.2426185E-2,2.901102E-3,1.7717166E-2],"split_indices":[0,4,17,11,2,13,0,0,0,0,0,0,0],"split_type":[0,0,0,0,0,0,0,0,0,0,0,0,0],"sum_hessian":[2.652E3,2.114E3,5.38E2,8.67E2,1.247E3,5.36E2,2E0,6.86E2,1.81E2,1.123E3,1.24E2,4.71E2,6.5E1],"tree_param":{"num_deleted":"0","num_feature":"20","num_nodes":"13","size_leaf_vector":"1"}},{"base_weights":[8.401925E-4,-6.271056E-2,1.0254369E0,-4.713153E-1,1.0099538E-1,3.6384826E0,5.1893634E-1,-1.0542158E-2,-1.9448722E-3,-8.136714E-3,2.1822618E-3,-3.7365211E-3,6.8175636E-2,2.3638082E-3,2.8634084E-2],"categories":[],"categories_nodes":[],"categories_segments":[],"categories_sizes":[],"default_left":[0,0,0,0,0,0,0,0,0,0,0,0,0,0,0],"id":37,"left_children":[1,3,5,7,9,11,13,-1,-1,-1,-1,-1,-1,-1,-1],"loss_changes":[1.7281145E2,1.6720827E2,2.0325577E2,1.1516966E2,1.9157797E2,3.2141992E2,8.610324E1,0E0,0E0,0E0,0E0,0E0,0E0,0E0,0E0],"parents":[2147483647,0,0,1,1,2,2,3,3,4,4,5,5,6,6],"right_children":[2,4,6,8,10,12,14,-1,-1,-1,-1,-1,-1,-1,-1],"split_conditions":[1.6108202E0,-5.613165E-1,-1.0396445E0,-5.915611E-1,-1.0853119E0,-6.831324E-2,1.0594145E0,-1.0542158E-2,-1.9448722E-3,-8.136714E-3,2.1822618E-3,-3.7365211E-3,6.8175636E-2,2.3638082E-3,2.8634084E-2],"split_indices":[1,14,12,2,0,4,18,0,0,0,0,0,0,0,0],"split_type":[0,0,0,0,0,0,0,0,0,0,0,0,0,0,0],"sum_hessian":[2.652E3,2.498E3,1.54E2,7.14E2,1.784E3,2.4E1,1.3E2,2.29E2,4.85E2,2.02E2,1.582E3,1.1E1,1.3E1,1.17E2,1.3E1],"tree_param":{"num_deleted":"0","num_feature":"20","num_nodes":"15","size_leaf_vector":"1"}},{"base_weights":[8.6087204E-4,-1.11985244E-1,5.7178813E-1,-1.2786265E-1,4.9167347E0,-2.0947522E-1,1.368418E0,-2.2050338E-2,-9.2451787E-4,3.6625385E-3,1.0861957E-1,-1.7058538E-2,4.209099E-3,2.139102E-2,-4.917338E-5],"categories":[],"categories_nodes":[],"categories_segments":[],"categories_sizes":[],"default_left":[0,0,0,0,0,0,0,0,0,0,0,0,0,0,0],"id":38,"left_children":[1,3,5,7,9,11,13,-1,-1,-1,-1,-1,-1,-1,-1],"loss_changes":[1.7098865E2,1.7756075E2,2.7288806E2,1.623514E2,1.8539714E2,2.1012949E2,2.2968494E2,0E0,0E0,0E0,0E0,0E0,0E0,0E0,0E0],"parents":[2147483647,0,0,1,1,2,2,3,3,4,4,5,5,6,6],"right_children":[2,4,6,8,10,12,14,-1,-1,-1,-1,-1,-1,-1,-1],"split_conditions":[9.341576E-1,2.828618E0,-3.3227317E-2,-2.1605124E0,1.451691E0,-6.976439E-1,2.8717348E-1,-2.2050338E-2,-9.2451787E-4,3.6625385E-3,1.0861957E-1,-1.7058538E-2,4.209099E-3,2.139102E-2,-4.917338E-5],"split_indices":[3,7,4,14,0,13,11,0,0,0,0,0,0,0,0],"split_type":[0,0,0,0,0,0,0,0,0,0,0,0,0,0,0],"sum_hessian":[2.652E3,2.215E3,4.37E2,2.209E3,6E0,2.21E2,2.16E2,3.6E1,2.173E3,4E0,2E0,6.5E1,1.56E2,1.38E2,7.8E1],"tree_param":{"num_deleted":"0","num_feature":"20","num_nodes":"15","size_leaf_vector":"1"}},{"base_weights":[8.887785E-4,-1.2679145E-1,5.018958E-1,-2.3491248E-1,5.035098E-1,4.6446332E-1,7.0350096E-2,-5.7413746E-3,3.663388E-4,4.111573E-4,1.855053E-2,8.002259E-3,-2.2877818E-3],"categories":[],"categories_nodes":[],"categories_segments":[],"categories_sizes":[],"default_left":[0,0,0,0,0,0,0,0,0,0,0,0,0],"id":39,"left_children":[1,3,5,7,9,11,-1,-1,-1,-1,-1,-1,-1],"loss_changes":[1.6977257E2,1.4425305E2,1.2854526E2,1.6638129E2,1.9365689E2,1.2517765E2,0E0,0E0,0E0,0E0,0E0,0E0,0E0],"parents":[2147483647,0,0,1,1,2,2,3,3,4,4,5,5],"right_children":[2,4,6,8,10,12,-1,-1,-1,-1,-1,-1,-1],"split_conditions":[6.0168105E-1,9.278777E-1,3.5423758E0,-1.4313002E-1,6.383994E-1,4.1884425E-1,7.0350096E-2,-5.7413746E-3,3.663388E-4,4.111573E-4,1.855053E-2,8.002259E-3,-2.2877818E-3],"split_indices":[0,8,17,9,4,9,0,0,0,0,0,0,0],"split_type":[0,0,0,0,0,0,0,0,0,0,0,0,0],"sum_hessian":[2.652E3,2.114E3,5.38E2,1.805E3,3.09E2,5.36E2,2E0,8.02E2,1.003E3,2.31E2,7.8E1,3.61E2,1.75E2],"tree_param":{"num_deleted":"0","num_feature":"20","num_nodes":"13","size_leaf_vector":"1"}},{"base_weights":[9.136581E-4,-6.1633468E-2,1.0093288E0,-4.64303E-1,9.969445E-2,3.5901146E0,5.091077E-1,-1.2109196E-2,-2.5034188E-3,1.3399414E-2,1.4279675E-4,-3.7537082E-3,6.732665E-2,2.2869264E-3,2.8362414E-2],"categories":[],"categories_nodes":[],"categories_segments":[],"categories_sizes":[],"default_left":[0,0,0,0,0,0,0,0,0,0,0,0,0,0,0],"id":40,"left_children":[1,3,5,7,9,11,13,-1,-1,-1,-1,-1,-1,-1,-1],"loss_changes":[1.6739615E2,1.6238593E2,1.9827159E2,1.1391589E2,1.8907559E2,3.1407077E2,8.483717E1,0E0,0E0,0E0,0E0,0E0,0E0,0E0,0E0],"parents":[2147483647,0,0,1,1,2,2,3,3,4,4,5,5,6,6],"right_children":[2,4,6,8,10,12,14,-1,-1,-1,-1,-1,-1,-1,-1],"split_conditions":[1.6108202E0,-5.613165E-1,-1.0396445E0,-6.3302225E-1,-4.2873764E-1,-6.831324E-2,1.0594145E0,-1.2109196E-2,-2.5034188E-3,1.3399414E-2,1.4279675E-4,-3.7537082E-3,6.732665E-2,2.2869264E-3,2.8362414E-2],"split_indices":[1,14,12,16,14,4,18,0,0,0,0,0,0,0,0],"split_type":[0,0,0,0,0,0,0,0,0,0,0,0,0,0,0],"sum_hessian":[2.652E3,2.498E3,1.54E2,7.14E2,1.784E3,2.4E1,1.3E2,1.58E2,5.56E2,1.14E2,1.67E3,1.1E1,1.3E1,1.17E2,1.3E1],"tree_param":{"num_deleted":"0","num_feature":"20","num_nodes":"15","size_leaf_vector":"1"}},{"base_weights":[9.3945797E-4,-2.0126155E-1,3.1031188E-1,-6.651921E-2,-1.1695546E0,1.2531906E0,1.3920526E-1,-1.3283738E-3,4.1235927E-2,-5.9153927E-3,-2.5016997E-2,1.9497149E-2,-5.3050523E-3,4.497579E-3,-6.432502E-3],"categories":[],"categories_nodes":[],"categories_segments":[],"categories_sizes":[],"default_left":[0,0,0,0,0,0,0,0,0,0,0,0,0,0,0],"id":41,"left_children":[1,3,5,7,9,11,13,-1,-1,-1,-1,-1,-1,-1,-1],"loss_changes":[1.6602199E2,2.0932666E2,1.6906366E2,3.923594E2,1.4944019E2,2.0105872E2,2.1631064E2,0E0,0E0,0E0,0E0,0E0,0E0,0E0,0E0],"parents":[2147483647,0,0,1,1,2,2,3,3,4,4,5,5,6,6],"right_children":[2,4,6,8,10,12,14,-1,-1,-1,-1,-1,-1,-1,-1],"split_conditions":[1.3341543E-1,9.4636E-1,-9.124502E-1,8.75753E-1,4.553096E-1,3.3201668E-1,5.6214726E-1,-1.3283738E-3,4.1235927E-2,-5.9153927E-3,-2.5016997E-2,1.9497149E-2,-5.3050523E-3,4.497579E-3,-6.432502E-3],"split_indices":[0,10,17,10,18,11,9,0,0,0,0,0,0,0,0],"split_type":[0,0,0,0,0,0,0,0,0,0,0,0,0,0,0],"sum_hessian":[2.652E3,1.604E3,1.048E3,1.409E3,1.95E2,1.6E2,8.88E2,1.388E3,2.1E1,1.37E2,5.8E1,1.15E2,4.5E1,6.36E2,2.52E2],"tree_param":{"num_deleted":"0","num_feature":"20","num_nodes":"15","size_leaf_vector":"1"}},{"base_weights":[9.381535E-4,-1.09922E-1,5.618175E-1,-1.2563618E-1,4.8669724E0,-2.0989807E-1,1.3487256E0,-2.1757528E-2,-9.0686796E-4,3.5771292E-3,1.076008E-1,2.0754602E-2,-6.199101E-3,2.1095607E-2,-7.0315014E-5],"categories":[],"categories_nodes":[],"categories_segments":[],"categories_sizes":[],"default_left":[0,0,0,0,0,0,0,0,0,0,0,0,0,0,0],"id":42,"left_children":[1,3,5,7,9,11,13,-1,-1,-1,-1,-1,-1,-1,-1],"loss_changes":[1.650231E2,1.7391997E2,2.66267E2,1.5814987E2,1.8216586E2,2.0930603E2,2.2385199E2,0E0,0E0,0E0,0E0,0E0,0E0,0E0,0E0],"parents":[2147483647,0,0,1,1,2,2,3,3,4,4,5,5,6,6],"right_children":[2,4,6,8,10,12,14,-1,-1,-1,-1,-1,-1,-1,-1],"split_conditions":[9.341576E-1,2.828618E0,-3.3227317E-2,-2.1605124E0,1.451691E0,2.3022343E-3,2.8717348E-1,-2.1757528E-2,-9.0686796E-4,3.5771292E-3,1.076008E-1,2.0754602E-2,-6.199101E-3,2.1095607E-2,-7.0315014E-5],"split_indices":[3,7,4,14,0,8,11,0,0,0,0,0,0,0,0],"split_type":[0,0,0,0,0,0,0,0,0,0,0,0,0,0,0],"sum_hessian":[2.652E3,2.215E3,4.37E2,2.209E3,6E0,2.21E2,2.16E2,3.6E1,2.173E3,4E0,2E0,3.3E1,1.88E2,1.38E2,7.8E1],"tree_param":{"num_deleted":"0","num_feature":"20","num_nodes":"15","size_leaf_vector":"1"}},{"base_weights":[9.7561063E-4,-1.2398071E-1,4.9129406E-1,-1.6952087E-1,1.3380879E0,-8.131178E-1,6.7188454E-1,-4.9300347E-3,5.238183E-4,3.7234362E-2,-9.084994E-4,-1.1749672E-2,3.8364377E-2,8.121756E-2,5.428249E-3],"categories":[],"categories_nodes":[],"categories_segments":[],"categories_sizes":[],"default_left":[0,0,0,0,0,0,0,0,0,0,0,0,0,0,0],"id":43,"left_children":[1,3,5,7,9,11,13,-1,-1,-1,-1,-1,-1,-1,-1],"loss_changes":[1.6260594E2,1.4104953E2,1.2751552E2,1.473218E2,2.1848325E2,1.1554863E2,4.5133182E2,0E0,0E0,0E0,0E0,0E0,0E0,0E0,0E0],"parents":[2147483647,0,0,1,1,2,2,3,3,4,4,5,5,6,6],"right_children":[2,4,6,8,10,12,14,-1,-1,-1,-1,-1,-1,-1,-1],"split_conditions":[6.0168105E-1,1.9104923E0,-9.541886E-1,-2.099856E-1,1.0030501E0,9.490972E-1,-9.103447E-1,-4.9300347E-3,5.238183E-4,3.7234362E-2,-9.084994E-4,-1.1749672E-2,3.8364377E-2,8.121756E-2,5.428249E-3],"split_indices":[0,3,13,4,7,15,13,0,0,0,0,0,0,0,0],"split_type":[0,0,0,0,0,0,0,0,0,0,0,0,0,0,0],"sum_hessian":[2.652E3,2.114E3,5.38E2,2.051E3,6.3E1,6.5E1,4.73E2,8.34E2,1.217E3,2.3E1,4E1,6.1E1,4E0,7E0,4.66E2],"tree_param":{"num_deleted":"0","num_feature":"20","num_nodes":"15","size_leaf_vector":"1"}},{"base_weights":[1.0208227E-3,-6.034803E-2,9.904385E-1,-4.5726678E-1,9.8675646E-2,3.5324621E0,4.9775892E-1,-9.955547E-3,-1.6572371E-3,-8.014253E-3,2.1404002E-3,-3.85346E-3,6.638265E-2,-1.4529204E-2,8.213443E-3],"categories":[],"categories_nodes":[],"categories_segments":[],"categories_sizes":[],"default_left":[0,0,0,0,0,0,0,0,0,0,0,0,0,0,0],"id":44,"left_children":[1,3,5,7,9,11,13,-1,-1,-1,-1,-1,-1,-1,-1],"loss_changes":[1.6114842E2,1.577807E2,1.923642E2,1.1204291E2,1.8552519E2,3.0675653E2,8.3882034E1,0E0,0E0,0E0,0E0,0E0,0E0,0E0,0E0],"parents":[2147483647,0,0,1,1,2,2,3,3,4,4,5,5,6,6],"right_children":[2,4,6,8,10,12,14,-1,-1,-1,-1,-1,-1,-1,-1],"split_conditions":[1.6108202E0,-5.613165E-1,-1.0396445E0,-3.204681E-1,-1.0853119E0,-6.831324E-2,-4.694818E-1,-9.955547E-3,-1.6572371E-3,-8.014253E-3,2.1404002E-3,-3.85346E-3,6.638265E-2,-1.4529204E-2,8.213443E-3],"split_indices":[1,14,12,16,0,4,12,0,0,0,0,0,0,0,0],"split_type":[0,0,0,0,0,0,0,0,0,0,0,0,0,0,0],"sum_hessian":[2.652E3,2.498E3,1.54E2,7.14E2,1.784E3,2.4E1,1.3E2,2.5E2,4.64E2,2.02E2,1.582E3,1.1E1,1.3E1,1.8E1,1.12E2],"tree_param":{"num_deleted":"0","num_feature":"20","num_nodes":"15","size_leaf_vector":"1"}},{"base_weights":[1.0255055E-3,-1.1554037E-1,5.171075E-1,-1.3276178E-1,7.350662E0,-2.3499916E-1,1.248933E0,-2.4726999E-3,4.6862457E-3,1.6165042E-2,1.0634598E-1,-1.6526742E-2,3.6329094E-3,2.0750096E-2,-1.743602E-3],"categories":[],"categories_nodes":[],"categories_segments":[],"categories_sizes":[],"default_left":[0,0,0,0,0,0,0,0,0,0,0,0,0,0,0],"id":45,"left_children":[1,3,5,7,9,11,13,-1,-1,-1,-1,-1,-1,-1,-1],"loss_changes":[1.5965773E2,2.7934845E2,2.6944434E2,1.4893027E2,7.696219E1,2.058602E2,2.9194763E2,0E0,0E0,0E0,0E0,0E0,0E0,0E0,0E0],"parents":[2147483647,0,0,1,1,2,2,3,3,4,4,5,5,6,6],"right_children":[2,4,6,8,10,12,14,-1,-1,-1,-1,-1,-1,-1,-1],"split_conditions":[8.502239E-1,2.828618E0,-3.3227317E-2,9.464092E-1,1.451691E0,-6.976439E-1,2.8717348E-1,-2.4726999E-3,4.6862457E-3,1.6165042E-2,1.0634598E-1,-1.6526742E-2,3.6329094E-3,2.0750096E-2,-1.743602E-3],"split_indices":[3,7,4,12,0,13,11,0,0,0,0,0,0,0,0],"split_type":[0,0,0,0,0,0,0,0,0,0,0,0,0,0,0],"sum_hessian":[2.652E3,2.164E3,4.88E2,2.16E3,4E0,2.41E2,2.47E2,1.815E3,3.45E2,2E0,2E0,7.1E1,1.7E2,1.56E2,9.1E1],"tree_param":{"num_deleted":"0","num_feature":"20","num_nodes":"15","size_leaf_vector":"1"}},{"base_weights":[1.0647024E-3,-1.963485E-1,3.0311152E-1,-6.313298E-2,-1.1536828E0,1.2352709E0,1.3395432E-1,-1.2865971E-3,4.076856E-2,-5.80749E-3,-2.4742113E-2,1.9218555E-2,-5.2297018E-3,4.4220737E-3,-6.4269057E-3],"categories":[],"categories_nodes":[],"categories_segments":[],"categories_sizes":[],"default_left":[0,0,0,0,0,0,0,0,0,0,0,0,0,0,0],"id":46,"left_children":[1,3,5,7,9,11,13,-1,-1,-1,-1,-1,-1,-1,-1],"loss_changes":[1.5825269E2,2.0461569E2,1.6524239E2,3.8302924E2,1.468519E2,1.9536124E2,2.1311363E2,0E0,0E0,0E0,0E0,0E0,0E0,0E0,0E0],"parents":[2147483647,0,0,1,1,2,2,3,3,4,4,5,5,6,6],"right_children":[2,4,6,8,10,12,14,-1,-1,-1,-1,-1,-1,-1,-1],"split_conditions":[1.3341543E-1,9.4636E-1,-9.124502E-1,8.75753E-1,4.553096E-1,3.3201668E-1,5.6214726E-1,-1.2865971E-3,4.076856E-2,-5.80749E-3,-2.4742113E-2,1.9218555E-2,-5.2297018E-3,4.4220737E-3,-6.4269057E-3],"split_indices":[0,10,17,10,18,11,9,0,0,0,0,0,0,0,0],"split_type":[0,0,0,0,0,0,0,0,0,0,0,0,0,0,0],"sum_hessian":[2.652E3,1.604E3,1.048E3,1.409E3,1.95E2,1.6E2,8.88E2,1.388E3,2.1E1,1.37E2,5.8E1,1.15E2,4.5E1,6.36E2,2.52E2],"tree_param":{"num_deleted":"0","num_feature":"20","num_nodes":"15","size_leaf_vector":"1"}},{"base_weights":[1.0618849E-3,-5.934996E-2,9.750499E-1,-4.51631E-1,9.781547E-2,3.4849455E0,4.8861906E-1,-1.0242426E-2,-1.797127E-3,1.3232058E-2,1.3424264E-4,-3.8736113E-3,6.555141E-2,2.103655E-3,2.7989976E-2],"categories":[],"categories_nodes":[],"categories_segments":[],"categories_sizes":[],"default_left":[0,0,0,0,0,0,0,0,0,0,0,0,0,0,0],"id":47,"left_children":[1,3,5,7,9,11,13,-1,-1,-1,-1,-1,-1,-1,-1],"loss_changes":[1.5616148E2,1.5411508E2,1.8753526E2,1.1114398E2,1.8457297E2,2.9975763E2,8.3627304E1,0E0,0E0,0E0,0E0,0E0,0E0,0E0,0E0],"parents":[2147483647,0,0,1,1,2,2,3,3,4,4,5,5,6,6],"right_children":[2,4,6,8,10,12,14,-1,-1,-1,-1,-1,-1,-1,-1],"split_conditions":[1.6108202E0,-5.613165E-1,-1.0396445E0,-5.915611E-1,-4.2873764E-1,-6.831324E-2,1.0594145E0,-1.0242426E-2,-1.797127E-3,1.3232058E-2,1.3424264E-4,-3.8736113E-3,6.555141E-2,2.103655E-3,2.7989976E-2],"split_indices":[1,14,12,2,14,4,18,0,0,0,0,0,0,0,0],"split_type":[0,0,0,0,0,0,0,0,0,0,0,0,0,0,0],"sum_hessian":[2.652E3,2.498E3,1.54E2,7.14E2,1.784E3,2.4E1,1.3E2,2.29E2,4.85E2,1.14E2,1.67E3,1.1E1,1.3E1,1.17E2,1.3E1],"tree_param":{"num_deleted":"0","num_feature":"20","num_nodes":"15","size_leaf_vector":"1"}},{"base_weights":[1.0861283E-3,-1.0651285E-1,5.454657E-1,-1.2189434E-1,4.7648582E0,-2.08609E-1,1.3144017E0,-2.1422574E-2,-8.745306E-4,3.4867018E-3,1.0536886E-1,2.0507587E-2,-6.139524E-3,2.0555194E-2,-6.228604E-5],"categories":[],"categories_nodes":[],"categories_segments":[],"categories_sizes":[],"default_left":[0,0,0,0,0,0,0,0,0,0,0,0,0,0,0],"id":48,"left_children":[1,3,5,7,9,11,13,-1,-1,-1,-1,-1,-1,-1,-1],"loss_changes":[1.5545674E2,1.6662332E2,2.5424199E2,1.5359303E2,1.7475864E2,2.0457106E2,2.1239996E2,0E0,0E0,0E0,0E0,0E0,0E0,0E0,0E0],"parents":[2147483647,0,0,1,1,2,2,3,3,4,4,5,5,6,6],"right_children":[2,4,6,8,10,12,14,-1,-1,-1,-1,-1,-1,-1,-1],"split_conditions":[9.341576E-1,2.828618E0,-3.3227317E-2,-2.1605124E0,1.451691E0,2.3022343E-3,2.8717348E-1,-2.1422574E-2,-8.745306E-4,3.4867018E-3,1.0536886E-1,2.0507587E-2,-6.139524E-3,2.0555194E-2,-6.228604E-5],"split_indices":[3,7,4,14,0,8,11,0,0,0,0,0,0,0,0],"split_type":[0,0,0,0,0,0,0,0,0,0,0,0,0,0,0],"sum_hessian":[2.652E3,2.215E3,4.37E2,2.209E3,6E0,2.21E2,2.16E2,3.6E1,2.173E3,4E0,2E0,3.3E1,1.88E2,1.38E2,7.8E1],"tree_param":{"num_deleted":"0","num_feature":"20","num_nodes":"15","size_leaf_vector":"1"}},{"base_weights":[1.1210109E-3,-1.9368047E-1,2.9917178E-1,-6.1921813E-2,-1.1405479E0,1.2207584E0,1.3193372E-1,-1.2680277E-3,4.0372405E-2,-5.7310443E-3,-2.4484571E-2,-3.512496E-3,1.9739296E-2,4.372405E-3,-6.372851E-3],"categories":[],"categories_nodes":[],"categories_segments":[],"categories_sizes":[],"default_left":[0,0,0,0,0,0,0,0,0,0,0,0,0,0,0],"id":49,"left_children":[1,3,5,7,9,11,13,-1,-1,-1,-1,-1,-1,-1,-1],"loss_changes":[1.5409306E2,2.0016591E2,1.6151537E2,3.755121E2,1.4406107E2,1.9131595E2,2.090583E2,0E0,0E0,0E0,0E0,0E0,0E0,0E0,0E0],"parents":[2147483647,0,0,1,1,2,2,3,3,4,4,5,5,6,6],"right_children":[2,4,6,8,10,12,14,-1,-1,-1,-1,-1,-1,-1,-1],"split_conditions":[1.3341543E-1,9.4636E-1,-9.124502E-1,8.75753E-1,4.553096E-1,-3.6443523E-1,5.6214726E-1,-1.2680277E-3,4.0372405E-2,-5.7310443E-3,-2.4484571E-2,-3.512496E-3,1.9739296E-2,4.372405E-3,-6.372851E-3],"split_indices":[0,10,17,10,18,8,9,0,0,0,0,0,0,0,0],"split_type":[0,0,0,0,0,0,0,0,0,0,0,0,0,0,0],"sum_hessian":[2.652E3,1.604E3,1.048E3,1.409E3,1.95E2,1.6E2,8.88E2,1.388E3,2.1E1,1.37E2,5.8E1,5.2E1,1.08E2,6.36E2,2.52E2],"tree_param":{"num_deleted":"0","num_feature":"20","num_nodes":"15","size_leaf_vector":"1"}},{"base_weights":[1.1185985E-3,-5.8470495E-2,9.6184134E-1,-4.455695E-1,9.661873E-2,3.4382572E0,4.8190063E-1,-1.178957E-2,-2.3541837E-3,1.3095776E-2,1.3083778E-4,-3.8976248E-3,6.4738266E-2,9.923198E-3,-7.4760937E-3],"categories":[],"categories_nodes":[],"categories_segments":[],"categories_sizes":[],"default_left":[0,0,0,0,0,0,0,0,0,0,0,0,0,0,0],"id":50,"left_children":[1,3,5,7,9,11,13,-1,-1,-1,-1,-1,-1,-1,-1],"loss_changes":[1.5193677E2,1.5007022E2,1.825657E2,1.0991983E2,1.8084702E2,2.9302878E2,8.295295E1,0E0,0E0,0E0,0E0,0E0,0E0,0E0,0E0],"parents":[2147483647,0,0,1,1,2,2,3,3,4,4,5,5,6,6],"right_children":[2,4,6,8,10,12,14,-1,-1,-1,-1,-1,-1,-1,-1],"split_conditions":[1.6108202E0,-5.613165E-1,-1.0396445E0,-6.3302225E-1,-4.2873764E-1,-6.831324E-2,6.866597E-1,-1.178957E-2,-2.3541837E-3,1.3095776E-2,1.3083778E-4,-3.8976248E-3,6.4738266E-2,9.923198E-3,-7.4760937E-3],"split_indices":[1,14,12,16,14,4,4,0,0,0,0,0,0,0,0],"split_type":[0,0,0,0,0,0,0,0,0,0,0,0,0,0,0],"sum_hessian":[2.652E3,2.498E3,1.54E2,7.14E2,1.784E3,2.4E1,1.3E2,1.58E2,5.56E2,1.14E2,1.67E3,1.1E1,1.3E1,9.2E1,3.8E1],"tree_param":{"num_deleted":"0","num_feature":"20","num_nodes":"15","size_leaf_vector":"1"}},{"base_weights":[1.1311156E-3,-1.0490936E-1,5.3762555E-1,-1.20144635E-1,4.72007E0,-9.861337E-2,1.4330969E0,-2.1151453E-2,-8.6135813E-4,3.4571933E-3,1.0437298E-1,1.9417085E-2,-4.6150805E-3,1.299463E-2,8.973432E-2],"categories":[],"categories_nodes":[],"categories_segments":[],"categories_sizes":[],"default_left":[0,0,0,0,0,0,0,0,0,0,0,0,0,0,0],"id":51,"left_children":[1,3,5,7,9,11,13,-1,-1,-1,-1,-1,-1,-1,-1],"loss_changes":[1.5098593E2,1.6346494E2,2.496847E2,1.4976106E2,1.7145573E2,1.9118456E2,1.7173068E2,0E0,0E0,0E0,0E0,0E0,0E0,0E0,0E0],"parents":[2147483647,0,0,1,1,2,2,3,3,4,4,5,5,6,6],"right_children":[2,4,6,8,10,12,14,-1,-1,-1,-1,-1,-1,-1,-1],"split_conditions":[9.341576E-1,2.828618E0,1.1253303E-1,-2.1605124E0,1.451691E0,2.3022343E-3,2.1641147E0,-2.1151453E-2,-8.6135813E-4,3.4571933E-3,1.0437298E-1,1.9417085E-2,-4.6150805E-3,1.299463E-2,8.973432E-2],"split_indices":[3,7,4,14,0,8,14,0,0,0,0,0,0,0,0],"split_type":[0,0,0,0,0,0,0,0,0,0,0,0,0,0,0],"sum_hessian":[2.652E3,2.215E3,4.37E2,2.209E3,6E0,2.56E2,1.81E2,3.6E1,2.173E3,4E0,2E0,3.8E1,2.18E2,1.79E2,2E0],"tree_param":{"num_deleted":"0","num_feature":"20","num_nodes":"15","size_leaf_vector":"1"}},{"base_weights":[1.1962721E-3,-1.9081381E-1,2.9497606E-1,-6.030902E-2,-1.1286757E0,1.2067827E0,1.295139E-1,-1.2453853E-3,3.9976504E-2,-5.664083E-3,-2.4246795E-2,1.8846856E-2,-5.2894657E-3,4.3168594E-3,-6.318027E-3],"categories":[],"categories_nodes":[],"categories_segments":[],"categories_sizes":[],"default_left":[0,0,0,0,0,0,0,0,0,0,0,0,0,0,0],"id":52,"left_children":[1,3,5,7,9,11,13,-1,-1,-1,-1,-1,-1,-1,-1],"loss_changes":[1.4970851E2,1.9637668E2,1.581058E2,3.6800137E2,1.41452E2,1.9043855E2,2.0478593E2,0E0,0E0,0E0,0E0,0E0,0E0,0E0,0E0],"parents":[2147483647,0,0,1,1,2,2,3,3,4,4,5,5,6,6],"right_children":[2,4,6,8,10,12,14,-1,-1,-1,-1,-1,-1,-1,-1],"split_conditions":[1.3341543E-1,9.4636E-1,-9.124502E-1,8.75753E-1,4.553096E-1,3.3201668E-1,5.6214726E-1,-1.2453853E-3,3.9976504E-2,-5.664083E-3,-2.4246795E-2,1.8846856E-2,-5.2894657E-3,4.3168594E-3,-6.318027E-3],"split_indices":[0,10,17,10,18,11,9,0,0,0,0,0,0,0,0],"split_type":[0,0,0,0,0,0,0,0,0,0,0,0,0,0,0],"sum_hessian":[2.652E3,1.604E3,1.048E3,1.409E3,1.95E2,1.6E2,8.88E2,1.388E3,2.1E1,1.37E2,5.8E1,1.15E2,4.5E1,6.36E2,2.52E2],"tree_param":{"num_deleted":"0","num_feature":"20","num_nodes":"15","size_leaf_vector":"1"}},{"base_weights":[1.1919638E-3,-1.109155E-1,4.9753442E-1,-1.2773763E-1,7.1817913E0,-2.3567255E-1,1.2109964E0,-2.4139057E-3,4.691453E-3,1.6061127E-2,1.0363539E-1,-1.6290601E-2,3.5239516E-3,2.0159593E-2,-1.7585318E-3],"categories":[],"categories_nodes":[],"categories_segments":[],"categories_sizes":[],"default_left":[0,0,0,0,0,0,0,0,0,0,0,0,0,0,0],"id":53,"left_children":[1,3,5,7,9,11,13,-1,-1,-1,-1,-1,-1,-1,-1],"loss_changes":[1.476779E2,2.6651712E2,2.560888E2,1.4671011E2,7.205701E1,1.988704E2,2.7721237E2,0E0,0E0,0E0,0E0,0E0,0E0,0E0,0E0],"parents":[2147483647,0,0,1,1,2,2,3,3,4,4,5,5,6,6],"right_children":[2,4,6,8,10,12,14,-1,-1,-1,-1,-1,-1,-1,-1],"split_conditions":[8.502239E-1,2.828618E0,-3.3227317E-2,9.464092E-1,1.451691E0,-6.976439E-1,2.8717348E-1,-2.4139057E-3,4.691453E-3,1.6061127E-2,1.0363539E-1,-1.6290601E-2,3.5239516E-3,2.0159593E-2,-1.7585318E-3],"split_indices":[3,7,4,12,0,13,11,0,0,0,0,0,0,0,0],"split_type":[0,0,0,0,0,0,0,0,0,0,0,0,0,0,0],"sum_hessian":[2.652E3,2.164E3,4.88E2,2.16E3,4E0,2.41E2,2.47E2,1.815E3,3.45E2,2E0,2E0,7.1E1,1.7E2,1.56E2,9.1E1],"tree_param":{"num_deleted":"0","num_feature":"20","num_nodes":"15","size_leaf_vector":"1"}},{"base_weights":[1.2280823E-3,-1.1746204E-1,4.6695793E-1,-2.2193061E-1,4.9153048E-1,4.2965123E-1,6.989205E-2,-5.5597746E-3,4.5461368E-4,1.0194267E-2,-6.6085146E-3,2.499103E-3,1.7085612E-2],"categories":[],"categories_nodes":[],"categories_segments":[],"categories_sizes":[],"default_left":[0,0,0,0,0,0,0,0,0,0,0,0,0],"id":54,"left_children":[1,3,5,7,9,11,-1,-1,-1,-1,-1,-1,-1],"loss_changes":[1.4670615E2,1.346666E2,1.2814845E2,1.613398E2,1.8925853E2,1.2301453E2,0E0,0E0,0E0,0E0,0E0,0E0,0E0],"parents":[2147483647,0,0,1,1,2,2,3,3,4,4,5,5],"right_children":[2,4,6,8,10,12,-1,-1,-1,-1,-1,-1,-1],"split_conditions":[6.0168105E-1,9.278777E-1,3.5423758E0,-1.4313002E-1,3.717737E-1,1.1612833E0,6.989205E-2,-5.5597746E-3,4.5461368E-4,1.0194267E-2,-6.6085146E-3,2.499103E-3,1.7085612E-2],"split_indices":[0,8,17,9,13,13,0,0,0,0,0,0,0],"split_type":[0,0,0,0,0,0,0,0,0,0,0,0,0],"sum_hessian":[2.652E3,2.114E3,5.38E2,1.805E3,3.09E2,5.36E2,2E0,8.02E2,1.003E3,2.12E2,9.7E1,4.71E2,6.5E1],"tree_param":{"num_deleted":"0","num_feature":"20","num_nodes":"13","size_leaf_vector":"1"}},{"base_weights":[1.2490175E-3,-5.7057355E-2,9.4129014E-1,-4.3819517E-1,9.564325E-2,3.37744E0,4.6919063E-1,-9.661021E-3,-1.522966E-3,-7.865417E-3,2.0871204E-3,-3.9280937E-3,6.367836E-2,1.9247889E-3,2.7679617E-2],"categories":[],"categories_nodes":[],"categories_segments":[],"categories_sizes":[],"default_left":[0,0,0,0,0,0,0,0,0,0,0,0,0,0,0],"id":55,"left_children":[1,3,5,7,9,11,13,-1,-1,-1,-1,-1,-1,-1,-1],"loss_changes":[1.4546567E2,1.4548364E2,1.7668161E2,1.0776625E2,1.7821362E2,2.8436487E2,8.279593E1,0E0,0E0,0E0,0E0,0E0,0E0,0E0,0E0],"parents":[2147483647,0,0,1,1,2,2,3,3,4,4,5,5,6,6],"right_children":[2,4,6,8,10,12,14,-1,-1,-1,-1,-1,-1,-1,-1],"split_conditions":[1.6108202E0,-5.613165E-1,-1.0396445E0,-3.204681E-1,-1.0853119E0,-6.831324E-2,1.0594145E0,-9.661021E-3,-1.522966E-3,-7.865417E-3,2.0871204E-3,-3.9280937E-3,6.367836E-2,1.9247889E-3,2.7679617E-2],"split_indices":[1,14,12,16,0,4,18,0,0,0,0,0,0,0,0],"split_type":[0,0,0,0,0,0,0,0,0,0,0,0,0,0,0],"sum_hessian":[2.652E3,2.498E3,1.54E2,7.14E2,1.784E3,2.4E1,1.3E2,2.5E2,4.64E2,2.02E2,1.582E3,1.1E1,1.3E1,1.17E2,1.3E1],"tree_param":{"num_deleted":"0","num_feature":"20","num_nodes":"15","size_leaf_vector":"1"}},{"base_weights":[1.2634887E-3,-1.8647341E-1,2.885051E-1,-5.7362594E-2,-1.1143293E0,6.350787E-1,-1.4144754E-1,-1.2089127E-3,3.9562147E-2,-5.5719838E-3,-2.3985624E-2,1.2062802E-2,2.4363762E-3,-1.9892594E-3,8.853173E-2],"categories":[],"categories_nodes":[],"categories_segments":[],"categories_sizes":[],"default_left":[0,0,0,0,0,0,0,0,0,0,0,0,0,0,0],"id":56,"left_children":[1,3,5,7,9,11,13,-1,-1,-1,-1,-1,-1,-1,-1],"loss_changes":[1.4311908E2,1.9220905E2,1.5640158E2,3.5999622E2,1.3889877E2,1.2961287E2,2.4423248E2,0E0,0E0,0E0,0E0,0E0,0E0,0E0,0E0],"parents":[2147483647,0,0,1,1,2,2,3,3,4,4,5,5,6,6],"right_children":[2,4,6,8,10,12,14,-1,-1,-1,-1,-1,-1,-1,-1],"split_conditions":[1.3341543E-1,9.4636E-1,5.7684686E-2,8.75753E-1,4.553096E-1,1.2398497E-1,2.34128E0,-1.2089127E-3,3.9562147E-2,-5.5719838E-3,-2.3985624E-2,1.2062802E-2,2.4363762E-3,-1.9892594E-3,8.853173E-2],"split_indices":[0,10,18,10,18,6,14,0,0,0,0,0,0,0,0],"split_type":[0,0,0,0,0,0,0,0,0,0,0,0,0,0,0],"sum_hessian":[2.652E3,1.604E3,1.048E3,1.409E3,1.95E2,5.8E2,4.68E2,1.388E3,2.1E1,1.37E2,5.8E1,2.35E2,3.45E2,4.66E2,2E0],"tree_param":{"num_deleted":"0","num_feature":"20","num_nodes":"15","size_leaf_vector":"1"}},{"base_weights":[1.2924232E-3,-5.6330863E-2,9.3032014E-1,-4.3383795E-1,9.491502E-2,3.3377352E0,4.637881E-1,-9.957307E-3,-1.6702894E-3,7.9960376E-4,6.733476E-2,-3.90769E-3,6.295186E-2,1.8933788E-3,2.7438838E-2],"categories":[],"categories_nodes":[],"categories_segments":[],"categories_sizes":[],"default_left":[0,0,0,0,0,0,0,0,0,0,0,0,0,0,0],"id":57,"left_children":[1,3,5,7,9,11,13,-1,-1,-1,-1,-1,-1,-1,-1],"loss_changes":[1.4207713E2,1.4272505E2,1.725381E2,1.0702507E2,1.7667152E2,2.781317E2,8.1456726E1,0E0,0E0,0E0,0E0,0E0,0E0,0E0,0E0],"parents":[2147483647,0,0,1,1,2,2,3,3,4,4,5,5,6,6],"right_children":[2,4,6,8,10,12,14,-1,-1,-1,-1,-1,-1,-1,-1],"split_conditions":[1.6108202E0,-5.613165E-1,-1.0396445E0,-5.915611E-1,5.0971365E0,-6.831324E-2,1.0594145E0,-9.957307E-3,-1.6702894E-3,7.9960376E-4,6.733476E-2,-3.90769E-3,6.295186E-2,1.8933788E-3,2.7438838E-2],"split_indices":[1,14,12,2,16,4,18,0,0,0,0,0,0,0,0],"split_type":[0,0,0,0,0,0,0,0,0,0,0,0,0,0,0],"sum_hessian":[2.652E3,2.498E3,1.54E2,7.14E2,1.784E3,2.4E1,1.3E2,2.29E2,4.85E2,1.781E3,3E0,1.1E1,1.3E1,1.17E2,1.3E1],"tree_param":{"num_deleted":"0","num_feature":"20","num_nodes":"15","size_leaf_vector":"1"}},{"base_weights":[1.3343355E-3,-1.0123785E-1,5.2028096E-1,-1.1615938E-1,4.624167E0,-1.02205165E-1,1.3964274E0,-2.0812519E-2,-8.266142E-4,3.2918549E-3,1.024108E-1,1.9209804E-2,-4.620318E-3,1.2660735E-2,8.752184E-2],"categories":[],"categories_nodes":[],"categories_segments":[],"categories_sizes":[],"default_left":[0,0,0,0,0,0,0,0,0,0,0,0,0,0,0],"id":58,"left_children":[1,3,5,7,9,11,13,-1,-1,-1,-1,-1,-1,-1,-1],"loss_changes":[1.4127051E2,1.5678795E2,2.390231E2,1.4530475E2,1.6550055E2,1.8798254E2,1.6343005E2,0E0,0E0,0E0,0E0,0E0,0E0,0E0,0E0],"parents":[2147483647,0,0,1,1,2,2,3,3,4,4,5,5,6,6],"right_children":[2,4,6,8,10,12,14,-1,-1,-1,-1,-1,-1,-1,-1],"split_conditions":[9.341576E-1,2.828618E0,1.1253303E-1,-2.1605124E0,1.451691E0,2.3022343E-3,2.1641147E0,-2.0812519E-2,-8.266142E-4,3.2918549E-3,1.024108E-1,1.9209804E-2,-4.620318E-3,1.2660735E-2,8.752184E-2],"split_indices":[3,7,4,14,0,8,14,0,0,0,0,0,0,0,0],"split_type":[0,0,0,0,0,0,0,0,0,0,0,0,0,0,0],"sum_hessian":[2.652E3,2.215E3,4.37E2,2.209E3,6E0,2.56E2,1.81E2,3.6E1,2.173E3,4E0,2E0,3.8E1,2.18E2,1.79E2,2E0],"tree_param":{"num_deleted":"0","num_feature":"20","num_nodes":"15","size_leaf_vector":"1"}},{"base_weights":[1.3961287E-3,-2.0417545E0,2.7120115E-2,-2.482252E0,9.214827E-1,-3.412527E-1,1.7167689E-1,1.7478848E-2,-2.860332E-2,2.7733935E-2,-1.2375892E-2,-4.1635884E-3,2.3796305E-2,1.4056576E-2,8.613925E-4],"categories":[],"categories_nodes":[],"categories_segments":[],"categories_sizes":[],"default_left":[0,0,0,0,0,0,0,0,0,0,0,0,0,0,0],"id":59,"left_children":[1,3,5,7,9,11,13,-1,-1,-1,-1,-1,-1,-1,-1],"loss_changes":[1.3949168E2,4.536223E1,1.396289E2,5.138008E1,2.3424366E1,1.5200912E2,1.98633E2,0E0,0E0,0E0,0E0,0E0,0E0,0E0,0E0],"parents":[2147483647,0,0,1,1,2,2,3,3,4,4,5,5,6,6],"right_children":[2,4,6,8,10,12,14,-1,-1,-1,-1,-1,-1,-1,-1],"split_conditions":[-2.1516082E0,4.7364575E-1,-5.613165E-1,-1.4937695E0,-2.263254E0,1.9598598E0,-4.2873764E-1,1.7478848E-2,-2.860332E-2,2.7733935E-2,-1.2375892E-2,-4.1635884E-3,2.3796305E-2,1.4056576E-2,8.613925E-4],"split_indices":[3,15,14,12,3,1,14,0,0,0,0,0,0,0,0],"split_type":[0,0,0,0,0,0,0,0,0,0,0,0,0,0,0],"sum_hessian":[2.652E3,3.2E1,2.62E3,2.8E1,4E0,7.38E2,1.882E3,2E0,2.6E1,2E0,2E0,7.19E2,1.9E1,1.21E2,1.761E3],"tree_param":{"num_deleted":"0","num_feature":"20","num_nodes":"15","size_leaf_vector":"1"}},{"base_weights":[1.3969971E-3,-1.8337661E-1,2.8410456E-1,-5.5568114E-2,-1.1018796E0,5.556516E-1,-2.57478E-1,-1.1849235E-3,3.9197646E-2,-5.4971627E-3,-2.3747044E-2,3.7447189E-4,1.4467368E-2,1.6005471E-2,-5.500034E-3],"categories":[],"categories_nodes":[],"categories_segments":[],"categories_sizes":[],"default_left":[0,0,0,0,0,0,0,0,0,0,0,0,0,0,0],"id":60,"left_children":[1,3,5,7,9,11,13,-1,-1,-1,-1,-1,-1,-1,-1],"loss_changes":[1.3863658E2,1.883537E2,1.544144E2,3.5316858E2,1.3644481E2,3.227191E2,1.9165569E2,0E0,0E0,0E0,0E0,0E0,0E0,0E0,0E0],"parents":[2147483647,0,0,1,1,2,2,3,3,4,4,5,5,6,6],"right_children":[2,4,6,8,10,12,14,-1,-1,-1,-1,-1,-1,-1,-1],"split_conditions":[1.3341543E-1,9.4636E-1,4.1884425E-1,8.75753E-1,4.553096E-1,-1.1944242E-3,-8.911957E-1,-1.1849235E-3,3.9197646E-2,-5.4971627E-3,-2.3747044E-2,3.7447189E-4,1.4467368E-2,1.6005471E-2,-5.500034E-3],"split_indices":[0,10,9,10,18,4,17,0,0,0,0,0,0,0,0],"split_type":[0,0,0,0,0,0,0,0,0,0,0,0,0,0,0],"sum_hessian":[2.652E3,1.604E3,1.048E3,1.409E3,1.95E2,6.98E2,3.5E2,1.388E3,2.1E1,1.37E2,5.8E1,4.42E2,2.56E2,4.7E1,3.03E2],"tree_param":{"num_deleted":"0","num_feature":"20","num_nodes":"15","size_leaf_vector":"1"}},{"base_weights":[1.39558E-3,-8.993714E-2,5.7234603E-1,-2.5570846E-1,3.4865534E-1,1.406746E0,-3.072044E-1,-3.7996483E-3,5.47254E-3,-2.1636013E-3,1.0700387E-2,2.7250003E-2,5.0768326E-3,-7.239513E-3,9.13476E-3],"categories":[],"categories_nodes":[],"categories_segments":[],"categories_sizes":[],"default_left":[0,0,0,0,0,0,0,0,0,0,0,0,0,0,0],"id":61,"left_children":[1,3,5,7,9,11,13,-1,-1,-1,-1,-1,-1,-1,-1],"loss_changes":[1.3839604E2,1.6644058E2,2.690384E2,1.6593124E2,2.5619977E2,2.2143295E2,9.172126E1,0E0,0E0,0E0,0E0,0E0,0E0,0E0,0E0],"parents":[2147483647,0,0,1,1,2,2,3,3,4,4,5,5,6,6],"right_children":[2,4,6,8,10,12,14,-1,-1,-1,-1,-1,-1,-1,-1],"split_conditions":[1.0875837E0,4.8540574E-1,1.524884E0,9.278777E-1,-1.7741483E-2,-2.7393505E-1,6.7748046E-1,-3.7996483E-3,5.47254E-3,-2.1636013E-3,1.0700387E-2,2.7250003E-2,5.0768326E-3,-7.239513E-3,9.13476E-3],"split_indices":[12,1,12,8,4,19,8,0,0,0,0,0,0,0,0],"split_type":[0,0,0,0,0,0,0,0,0,0,0,0,0,0,0],"sum_hessian":[2.652E3,2.287E3,3.65E2,1.66E3,6.27E2,1.87E2,1.78E2,1.438E3,2.22E2,3.52E2,2.75E2,7.5E1,1.12E2,1.33E2,4.5E1],"tree_param":{"num_deleted":"0","num_feature":"20","num_nodes":"15","size_leaf_vector":"1"}},{"base_weights":[1.3983519E-3,-9.9489406E-2,5.118227E-1,-1.1429202E-1,4.5881195E0,-2.0921545E-1,1.2471161E0,-2.0555269E-2,-8.120095E-4,3.2578867E-3,1.0162631E-1,1.992772E-2,-6.042332E-3,1.9661414E-2,-3.3791008E-4],"categories":[],"categories_nodes":[],"categories_segments":[],"categories_sizes":[],"default_left":[0,0,0,0,0,0,0,0,0,0,0,0,0,0,0],"id":62,"left_children":[1,3,5,7,9,11,13,-1,-1,-1,-1,-1,-1,-1,-1],"loss_changes":[1.3666867E2,1.5429008E2,2.3247739E2,1.4179807E2,1.6301204E2,1.9430507E2,1.999245E2,0E0,0E0,0E0,0E0,0E0,0E0,0E0,0E0],"parents":[2147483647,0,0,1,1,2,2,3,3,4,4,5,5,6,6],"right_children":[2,4,6,8,10,12,14,-1,-1,-1,-1,-1,-1,-1,-1],"split_conditions":[9.341576E-1,2.828618E0,-3.3227317E-2,-2.1605124E0,1.451691E0,2.3022343E-3,2.8717348E-1,-2.0555269E-2,-8.120095E-4,3.2578867E-3,1.0162631E-1,1.992772E-2,-6.042332E-3,1.9661414E-2,-3.3791008E-4],"split_indices":[3,7,4,14,0,8,11,0,0,0,0,0,0,0,0],"split_type":[0,0,0,0,0,0,0,0,0,0,0,0,0,0,0],"sum_hessian":[2.652E3,2.215E3,4.37E2,2.209E3,6E0,2.21E2,2.16E2,3.6E1,2.173E3,4E0,2E0,3.3E1,1.88E2,1.38E2,7.8E1],"tree_param":{"num_deleted":"0","num_feature":"20","num_nodes":"15","size_leaf_vector":"1"}},{"base_weights":[1.4280365E-3,-2.0191877E0,2.6868284E-2,-6.1154115E-1,-3.0242145E0,-6.411156E-2,5.984503E-1,-1.8257825E-2,3.184068E-2,2.719872E-3,-3.6592513E-2,-2.2495359E-3,3.5939573E-3,1.3895418E-2,-2.457866E-3],"categories":[],"categories_nodes":[],"categories_segments":[],"categories_sizes":[],"default_left":[0,0,0,0,0,0,0,0,0,0,0,0,0,0,0],"id":63,"left_children":[1,3,5,7,9,11,13,-1,-1,-1,-1,-1,-1,-1,-1],"loss_changes":[1.3643161E2,4.483641E1,1.3633679E2,7.494519E1,4.0766266E1,1.5416327E2,2.4077422E2,0E0,0E0,0E0,0E0,0E0,0E0,0E0,0E0],"parents":[2147483647,0,0,1,1,2,2,3,3,4,4,5,5,6,6],"right_children":[2,4,6,8,10,12,14,-1,-1,-1,-1,-1,-1,-1,-1],"split_conditions":[-2.1516082E0,-6.478335E-1,1.0875837E0,6.4100826E-1,-1.6899115E0,4.8540574E-1,1.524884E0,-1.8257825E-2,3.184068E-2,2.719872E-3,-3.6592513E-2,-2.2495359E-3,3.5939573E-3,1.3895418E-2,-2.457866E-3],"split_indices":[3,0,12,12,8,1,12,0,0,0,0,0,0,0,0],"split_type":[0,0,0,0,0,0,0,0,0,0,0,0,0,0,0],"sum_hessian":[2.652E3,3.2E1,2.62E3,1.4E1,1.8E1,2.261E3,3.59E2,1.1E1,3E0,3E0,1.5E1,1.639E3,6.22E2,1.85E2,1.74E2],"tree_param":{"num_deleted":"0","num_feature":"20","num_nodes":"15","size_leaf_vector":"1"}},{"base_weights":[1.410948E-3,-1.1684785E-1,4.2994213E-1,-1.5433836E-1,1.7990265E0,3.5252264E0,3.0602497E-1,-2.1057082E-2,-1.2122036E-3,6.485407E-2,4.2476235E-3,2.1176307E-2,9.3299985E-2,-8.198444E-3,7.1947807E-3],"categories":[],"categories_nodes":[],"categories_segments":[],"categories_sizes":[],"default_left":[0,0,0,0,0,0,0,0,0,0,0,0,0,0,0],"id":64,"left_children":[1,3,5,7,9,11,13,-1,-1,-1,-1,-1,-1,-1,-1],"loss_changes":[1.3449786E2,1.4967805E2,2.1908398E2,1.3164528E2,2.5485825E2,1.5999948E2,2.5800815E2,0E0,0E0,0E0,0E0,0E0,0E0,0E0,0E0],"parents":[2147483647,0,0,1,1,2,2,3,3,4,4,5,5,6,6],"right_children":[2,4,6,8,10,12,14,-1,-1,-1,-1,-1,-1,-1,-1],"split_conditions":[6.9502854E-1,2.874943E0,-1.5640935E0,-2.1605124E0,-8.21372E-1,1.4796242E0,-6.2028855E-1,-2.1057082E-2,-1.2122036E-3,6.485407E-2,4.2476235E-3,2.1176307E-2,9.3299985E-2,-8.198444E-3,7.1947807E-3],"split_indices":[8,15,18,14,7,1,16,0,0,0,0,0,0,0,0],"split_type":[0,0,0,0,0,0,0,0,0,0,0,0,0,0,0],"sum_hessian":[2.652E3,2.079E3,5.73E2,2.04E3,3.9E1,2.1E1,5.52E2,3.3E1,2.007E3,8E0,3.1E1,1.8E1,3E0,1.48E2,4.04E2],"tree_param":{"num_deleted":"0","num_feature":"20","num_nodes":"15","size_leaf_vector":"1"}},{"base_weights":[1.4572567E-3,-1.9984351E0,2.6636574E-2,-6.0338867E-1,-2.9946067E0,-3.351761E-1,1.6861902E-1,-1.8079348E-2,3.1610966E-2,2.7085638E-3,-3.6238097E-2,-4.0914486E-3,2.3444584E-2,1.3879206E-2,8.4099476E-4],"categories":[],"categories_nodes":[],"categories_segments":[],"categories_sizes":[],"default_left":[0,0,0,0,0,0,0,0,0,0,0,0,0,0,0],"id":65,"left_children":[1,3,5,7,9,11,13,-1,-1,-1,-1,-1,-1,-1,-1],"loss_changes":[1.336475E2,4.4053375E1,1.3470003E2,7.37325E1,4.0019684E1,1.4743588E2,1.9393547E2,0E0,0E0,0E0,0E0,0E0,0E0,0E0,0E0],"parents":[2147483647,0,0,1,1,2,2,3,3,4,4,5,5,6,6],"right_children":[2,4,6,8,10,12,14,-1,-1,-1,-1,-1,-1,-1,-1],"split_conditions":[-2.1516082E0,-6.478335E-1,-5.613165E-1,6.4100826E-1,-1.6899115E0,1.9598598E0,-4.2873764E-1,-1.8079348E-2,3.1610966E-2,2.7085638E-3,-3.6238097E-2,-4.0914486E-3,2.3444584E-2,1.3879206E-2,8.4099476E-4],"split_indices":[3,0,14,12,8,1,14,0,0,0,0,0,0,0,0],"split_type":[0,0,0,0,0,0,0,0,0,0,0,0,0,0,0],"sum_hessian":[2.652E3,3.2E1,2.62E3,1.4E1,1.8E1,7.38E2,1.882E3,1.1E1,3E0,3E0,1.5E1,7.19E2,1.9E1,1.21E2,1.761E3],"tree_param":{"num_deleted":"0","num_feature":"20","num_nodes":"15","size_leaf_vector":"1"}},{"base_weights":[1.4478617E-3,-8.7971926E-2,5.6043977E-1,-2.4994272E-1,3.405654E-1,1.3783514E0,-3.0172703E-1,-3.718536E-3,5.3785876E-3,-2.1622377E-3,1.0514568E-2,2.6854493E-2,4.8704366E-3,-2.3463176E-4,-2.09787E-2],"categories":[],"categories_nodes":[],"categories_segments":[],"categories_sizes":[],"default_left":[0,0,0,0,0,0,0,0,0,0,0,0,0,0,0],"id":66,"left_children":[1,3,5,7,9,11,13,-1,-1,-1,-1,-1,-1,-1,-1],"loss_changes":[1.3265935E2,1.5889642E2,2.5851044E2,1.597251E2,2.4880022E2,2.1771707E2,8.941529E1,0E0,0E0,0E0,0E0,0E0,0E0,0E0,0E0],"parents":[2147483647,0,0,1,1,2,2,3,3,4,4,5,5,6,6],"right_children":[2,4,6,8,10,12,14,-1,-1,-1,-1,-1,-1,-1,-1],"split_conditions":[1.0875837E0,4.8540574E-1,1.524884E0,9.278777E-1,-1.7741483E-2,-2.7393505E-1,1.1979862E0,-3.718536E-3,5.3785876E-3,-2.1622377E-3,1.0514568E-2,2.6854493E-2,4.8704366E-3,-2.3463176E-4,-2.09787E-2],"split_indices":[12,1,12,8,4,19,6,0,0,0,0,0,0,0,0],"split_type":[0,0,0,0,0,0,0,0,0,0,0,0,0,0,0],"sum_hessian":[2.652E3,2.287E3,3.65E2,1.66E3,6.27E2,1.87E2,1.78E2,1.438E3,2.22E2,3.52E2,2.75E2,7.5E1,1.12E2,1.55E2,2.3E1],"tree_param":{"num_deleted":"0","num_feature":"20","num_nodes":"15","size_leaf_vector":"1"}},{"base_weights":[1.4410202E-3,-9.738997E-2,5.0145936E-1,-1.1203921E-1,4.541496E0,-1.04081556E-1,1.3537811E0,-2.0134386E-2,-7.962715E-4,3.2080594E-3,1.0062147E-1,1.8869394E-2,-4.5817164E-3,1.2253202E-2,8.610175E-2],"categories":[],"categories_nodes":[],"categories_segments":[],"categories_sizes":[],"default_left":[0,0,0,0,0,0,0,0,0,0,0,0,0,0,0],"id":67,"left_children":[1,3,5,7,9,11,13,-1,-1,-1,-1,-1,-1,-1,-1],"loss_changes":[1.3115297E2,1.5109961E2,2.2619962E2,1.3603818E2,1.598787E2,1.8204976E2,1.5910342E2,0E0,0E0,0E0,0E0,0E0,0E0,0E0,0E0],"parents":[2147483647,0,0,1,1,2,2,3,3,4,4,5,5,6,6],"right_children":[2,4,6,8,10,12,14,-1,-1,-1,-1,-1,-1,-1,-1],"split_conditions":[9.341576E-1,2.828618E0,1.1253303E-1,-2.1605124E0,1.451691E0,2.3022343E-3,2.1641147E0,-2.0134386E-2,-7.962715E-4,3.2080594E-3,1.0062147E-1,1.8869394E-2,-4.5817164E-3,1.2253202E-2,8.610175E-2],"split_indices":[3,7,4,14,0,8,14,0,0,0,0,0,0,0,0],"split_type":[0,0,0,0,0,0,0,0,0,0,0,0,0,0,0],"sum_hessian":[2.652E3,2.215E3,4.37E2,2.209E3,6E0,2.56E2,1.81E2,3.6E1,2.173E3,4E0,2E0,3.8E1,2.18E2,1.79E2,2E0],"tree_param":{"num_deleted":"0","num_feature":"20","num_nodes":"15","size_leaf_vector":"1"}},{"base_weights":[1.5003557E-3,-1.9780602E0,2.6423667E-2,-5.9450907E-1,-2.966229E0,-3.304426E-1,1.6646495E-1,-1.7872231E-2,3.1322606E-2,2.6509475E-3,-3.5886705E-2,-4.036048E-3,2.3199184E-2,1.3724463E-2,8.286894E-4],"categories":[],"categories_nodes":[],"categories_segments":[],"categories_sizes":[],"default_left":[0,0,0,0,0,0,0,0,0,0,0,0,0,0,0],"id":68,"left_children":[1,3,5,7,9,11,13,-1,-1,-1,-1,-1,-1,-1,-1],"loss_changes":[1.3094388E2,4.335356E1,1.3104214E2,7.2272606E1,3.916623E1,1.4423305E2,1.8972136E2,0E0,0E0,0E0,0E0,0E0,0E0,0E0,0E0],"parents":[2147483647,0,0,1,1,2,2,3,3,4,4,5,5,6,6],"right_children":[2,4,6,8,10,12,14,-1,-1,-1,-1,-1,-1,-1,-1],"split_conditions":[-2.1516082E0,-6.478335E-1,-5.613165E-1,6.4100826E-1,-1.6899115E0,1.9598598E0,-4.2873764E-1,-1.7872231E-2,3.1322606E-2,2.6509475E-3,-3.5886705E-2,-4.036048E-3,2.3199184E-2,1.3724463E-2,8.286894E-4],"split_indices":[3,0,14,12,8,1,14,0,0,0,0,0,0,0,0],"split_type":[0,0,0,0,0,0,0,0,0,0,0,0,0,0,0],"sum_hessian":[2.652E3,3.2E1,2.62E3,1.4E1,1.8E1,7.38E2,1.882E3,1.1E1,3E0,3E0,1.5E1,7.19E2,1.9E1,1.21E2,1.761E3],"tree_param":{"num_deleted":"0","num_feature":"20","num_nodes":"15","size_leaf_vector":"1"}},{"base_weights":[1.490545E-3,-8.6962804E-2,5.5444074E-1,-2.4689406E-1,3.361786E-1,1.3643483E0,-2.9928595E-1,-1.9504684E-3,-2.0629423E-2,-2.1323403E-3,1.0376513E-2,2.6595348E-2,4.811755E-3,3.4741845E-2,-4.276856E-3],"categories":[],"categories_nodes":[],"categories_segments":[],"categories_sizes":[],"default_left":[0,0,0,0,0,0,0,0,0,0,0,0,0,0,0],"id":69,"left_children":[1,3,5,7,9,11,13,-1,-1,-1,-1,-1,-1,-1,-1],"loss_changes":[1.2980724E2,1.5492004E2,2.534753E2,1.5599251E2,2.422512E2,2.1376859E2,8.8213554E1,0E0,0E0,0E0,0E0,0E0,0E0,0E0,0E0],"parents":[2147483647,0,0,1,1,2,2,3,3,4,4,5,5,6,6],"right_children":[2,4,6,8,10,12,14,-1,-1,-1,-1,-1,-1,-1,-1],"split_conditions":[1.0875837E0,4.8540574E-1,1.524884E0,4.456895E-1,-1.7741483E-2,-2.7393505E-1,-1.3779207E0,-1.9504684E-3,-2.0629423E-2,-2.1323403E-3,1.0376513E-2,2.6595348E-2,4.811755E-3,3.4741845E-2,-4.276856E-3],"split_indices":[12,1,12,1,4,19,9,0,0,0,0,0,0,0,0],"split_type":[0,0,0,0,0,0,0,0,0,0,0,0,0,0,0],"sum_hessian":[2.652E3,2.287E3,3.65E2,1.66E3,6.27E2,1.87E2,1.78E2,1.615E3,4.5E1,3.52E2,2.75E2,7.5E1,1.12E2,5E0,1.73E2],"tree_param":{"num_deleted":"0","num_feature":"20","num_nodes":"15","size_leaf_vector":"1"}},{"base_weights":[1.4934592E-3,-1.1410173E-1,4.2037237E-1,-1.5101649E-1,1.7723262E0,3.476134E0,2.9804483E-1,-3.4306156E-3,1.697581E-3,6.397668E-2,4.1606356E-3,2.2766812E-2,1.0313776E-1,-8.1409225E-3,7.0646554E-3],"categories":[],"categories_nodes":[],"categories_segments":[],"categories_sizes":[],"default_left":[0,0,0,0,0,0,0,0,0,0,0,0,0,0,0],"id":70,"left_children":[1,3,5,7,9,11,13,-1,-1,-1,-1,-1,-1,-1,-1],"loss_changes":[1.2850725E2,1.4511269E2,2.1352734E2,1.2579032E2,2.4826534E2,1.5695029E2,2.517587E2,0E0,0E0,0E0,0E0,0E0,0E0,0E0,0E0],"parents":[2147483647,0,0,1,1,2,2,3,3,4,4,5,5,6,6],"right_children":[2,4,6,8,10,12,14,-1,-1,-1,-1,-1,-1,-1,-1],"split_conditions":[6.9502854E-1,2.874943E0,-1.5640935E0,1.3341543E-1,-8.21372E-1,1.745654E0,-6.2028855E-1,-3.4306156E-3,1.697581E-3,6.397668E-2,4.1606356E-3,2.2766812E-2,1.0313776E-1,-8.1409225E-3,7.0646554E-3],"split_indices":[8,15,18,0,7,7,16,0,0,0,0,0,0,0,0],"split_type":[0,0,0,0,0,0,0,0,0,0,0,0,0,0,0],"sum_hessian":[2.652E3,2.079E3,5.73E2,2.04E3,3.9E1,2.1E1,5.52E2,1.276E3,7.64E2,8E0,3.1E1,1.9E1,2E0,1.48E2,4.04E2],"tree_param":{"num_deleted":"0","num_feature":"20","num_nodes":"15","size_leaf_vector":"1"}},{"base_weights":[1.5504507E-3,-1.957026E0,2.6209539E-2,-5.843935E-1,-2.937682E0,-3.2668027E-1,1.6469035E-1,-1.7659083E-2,3.1062495E-2,2.5841426E-3,-3.5531007E-2,-3.9892048E-3,2.2903027E-2,1.3573391E-2,8.2018465E-4],"categories":[],"categories_nodes":[],"categories_segments":[],"categories_sizes":[],"default_left":[0,0,0,0,0,0,0,0,0,0,0,0,0,0,0],"id":71,"left_children":[1,3,5,7,9,11,13,-1,-1,-1,-1,-1,-1,-1,-1],"loss_changes":[1.2818246E2,4.2703896E1,1.2813805E2,7.089361E1,3.8289978E1,1.4062271E2,1.8554968E2,0E0,0E0,0E0,0E0,0E0,0E0,0E0,0E0],"parents":[2147483647,0,0,1,1,2,2,3,3,4,4,5,5,6,6],"right_children":[2,4,6,8,10,12,14,-1,-1,-1,-1,-1,-1,-1,-1],"split_conditions":[-2.1516082E0,-6.478335E-1,-5.613165E-1,6.4100826E-1,-1.6899115E0,1.9598598E0,-4.2873764E-1,-1.7659083E-2,3.1062495E-2,2.5841426E-3,-3.5531007E-2,-3.9892048E-3,2.2903027E-2,1.3573391E-2,8.2018465E-4],"split_indices":[3,0,14,12,8,1,14,0,0,0,0,0,0,0,0],"split_type":[0,0,0,0,0,0,0,0,0,0,0,0,0,0,0],"sum_hessian":[2.652E3,3.2E1,2.62E3,1.4E1,1.8E1,7.38E2,1.882E3,1.1E1,3E0,3E0,1.5E1,7.19E2,1.9E1,1.21E2,1.761E3],"tree_param":{"num_deleted":"0","num_feature":"20","num_nodes":"15","size_leaf_vector":"1"}},{"base_weights":[1.5401404E-3,-8.591349E-2,5.482406E-1,-2.4311645E-1,3.3001015E-1,1.3495804E0,-2.9645288E-1,1.7281255E-2,-2.9033476E-3,-2.1300537E-3,1.0233234E-2,2.6326627E-2,4.7467924E-3,-2.0930561E-4,-2.0749956E-2],"categories":[],"categories_nodes":[],"categories_segments":[],"categories_sizes":[],"default_left":[0,0,0,0,0,0,0,0,0,0,0,0,0,0,0],"id":72,"left_children":[1,3,5,7,9,11,13,-1,-1,-1,-1,-1,-1,-1,-1],"loss_changes":[1.2688952E2,1.4967981E2,2.4814056E2,1.5510548E2,2.3664734E2,2.0979352E2,8.7671616E1,0E0,0E0,0E0,0E0,0E0,0E0,0E0,0E0],"parents":[2147483647,0,0,1,1,2,2,3,3,4,4,5,5,6,6],"right_children":[2,4,6,8,10,12,14,-1,-1,-1,-1,-1,-1,-1,-1],"split_conditions":[1.0875837E0,4.8540574E-1,1.524884E0,-1.741644E0,-1.7741483E-2,-2.7393505E-1,1.1979862E0,1.7281255E-2,-2.9033476E-3,-2.1300537E-3,1.0233234E-2,2.6326627E-2,4.7467924E-3,-2.0930561E-4,-2.0749956E-2],"split_indices":[12,1,12,12,4,19,6,0,0,0,0,0,0,0,0],"split_type":[0,0,0,0,0,0,0,0,0,0,0,0,0,0,0],"sum_hessian":[2.652E3,2.287E3,3.65E2,1.66E3,6.27E2,1.87E2,1.78E2,3.8E1,1.622E3,3.52E2,2.75E2,7.5E1,1.12E2,1.55E2,2.3E1],"tree_param":{"num_deleted":"0","num_feature":"20","num_nodes":"15","size_leaf_vector":"1"}},{"base_weights":[1.5368947E-3,-9.551965E-2,4.9257743E-1,-1.1002338E-1,4.4971614E0,-2.0750204E-1,1.2065178E0,-1.9854635E-2,-7.805405E-4,3.2187023E-3,9.956926E-2,1.9552622E-2,-5.9547285E-3,1.9191034E-2,-6.2544533E-4],"categories":[],"categories_nodes":[],"categories_segments":[],"categories_sizes":[],"default_left":[0,0,0,0,0,0,0,0,0,0,0,0,0,0,0],"id":73,"left_children":[1,3,5,7,9,11,13,-1,-1,-1,-1,-1,-1,-1,-1],"loss_changes":[1.2648557E2,1.4810481E2,2.1916934E2,1.3234901E2,1.5636794E2,1.8744215E2,1.9635654E2,0E0,0E0,0E0,0E0,0E0,0E0,0E0,0E0],"parents":[2147483647,0,0,1,1,2,2,3,3,4,4,5,5,6,6],"right_children":[2,4,6,8,10,12,14,-1,-1,-1,-1,-1,-1,-1,-1],"split_conditions":[9.341576E-1,2.828618E0,-3.3227317E-2,-2.1605124E0,1.451691E0,2.3022343E-3,2.8717348E-1,-1.9854635E-2,-7.805405E-4,3.2187023E-3,9.956926E-2,1.9552622E-2,-5.9547285E-3,1.9191034E-2,-6.2544533E-4],"split_indices":[3,7,4,14,0,8,11,0,0,0,0,0,0,0,0],"split_type":[0,0,0,0,0,0,0,0,0,0,0,0,0,0,0],"sum_hessian":[2.652E3,2.215E3,4.37E2,2.209E3,6E0,2.21E2,2.16E2,3.6E1,2.173E3,4E0,2E0,3.3E1,1.88E2,1.38E2,7.8E1],"tree_param":{"num_deleted":"0","num_feature":"20","num_nodes":"15","size_leaf_vector":"1"}},{"base_weights":[1.5642813E-3,-1.9375361E0,2.597815E-2,-5.763465E-1,-2.910184E0,-6.1142586E-2,5.733146E-1,-1.7463446E-2,3.0777344E-2,2.5267028E-3,-3.519011E-2,-2.1361033E-3,3.4031528E-3,1.3326579E-2,-2.3703496E-3],"categories":[],"categories_nodes":[],"categories_segments":[],"categories_sizes":[],"default_left":[0,0,0,0,0,0,0,0,0,0,0,0,0,0,0],"id":74,"left_children":[1,3,5,7,9,11,13,-1,-1,-1,-1,-1,-1,-1,-1],"loss_changes":[1.2564586E2,4.201335E1,1.2501574E2,6.950381E1,3.7476135E1,1.3852829E2,2.2183598E2,0E0,0E0,0E0,0E0,0E0,0E0,0E0,0E0],"parents":[2147483647,0,0,1,1,2,2,3,3,4,4,5,5,6,6],"right_children":[2,4,6,8,10,12,14,-1,-1,-1,-1,-1,-1,-1,-1],"split_conditions":[-2.1516082E0,-6.478335E-1,1.0875837E0,6.4100826E-1,-1.6899115E0,4.8540574E-1,1.524884E0,-1.7463446E-2,3.0777344E-2,2.5267028E-3,-3.519011E-2,-2.1361033E-3,3.4031528E-3,1.3326579E-2,-2.3703496E-3],"split_indices":[3,0,12,12,8,1,12,0,0,0,0,0,0,0,0],"split_type":[0,0,0,0,0,0,0,0,0,0,0,0,0,0,0],"sum_hessian":[2.652E3,3.2E1,2.62E3,1.4E1,1.8E1,2.261E3,3.59E2,1.1E1,3E0,3E0,1.5E1,1.639E3,6.22E2,1.85E2,1.74E2],"tree_param":{"num_deleted":"0","num_feature":"20","num_nodes":"15","size_leaf_vector":"1"}},{"base_weights":[1.5461033E-3,-1.1222839E-1,4.138273E-1,-1.4868614E-1,1.750834E0,3.4320655E0,2.930044E-1,-2.0319384E-2,-1.1672436E-3,6.327676E-2,4.0888363E-3,2.0525236E-2,9.1268726E-2,-8.068325E-3,6.9691227E-3],"categories":[],"categories_nodes":[],"categories_segments":[],"categories_sizes":[],"default_left":[0,0,0,0,0,0,0,0,0,0,0,0,0,0,0],"id":75,"left_children":[1,3,5,7,9,11,13,-1,-1,-1,-1,-1,-1,-1,-1],"loss_changes":[1.24490944E2,1.415403E2,2.083163E2,1.226149E2,2.430885E2,1.5410382E2,2.4622302E2,0E0,0E0,0E0,0E0,0E0,0E0,0E0,0E0],"parents":[2147483647,0,0,1,1,2,2,3,3,4,4,5,5,6,6],"right_children":[2,4,6,8,10,12,14,-1,-1,-1,-1,-1,-1,-1,-1],"split_conditions":[6.9502854E-1,2.874943E0,-1.5640935E0,-2.1605124E0,-8.21372E-1,1.4796242E0,-6.2028855E-1,-2.0319384E-2,-1.1672436E-3,6.327676E-2,4.0888363E-3,2.0525236E-2,9.1268726E-2,-8.068325E-3,6.9691227E-3],"split_indices":[8,15,18,14,7,1,16,0,0,0,0,0,0,0,0],"split_type":[0,0,0,0,0,0,0,0,0,0,0,0,0,0,0],"sum_hessian":[2.652E3,2.079E3,5.73E2,2.04E3,3.9E1,2.1E1,5.52E2,3.3E1,2.007E3,8E0,3.1E1,1.8E1,3E0,1.48E2,4.04E2],"tree_param":{"num_deleted":"0","num_feature":"20","num_nodes":"15","size_leaf_vector":"1"}},{"base_weights":[1.5896437E-3,-1.9176148E0,2.5753E-2,-2.339211E0,9.1116583E-1,-3.2104132E-1,1.6184182E-1,1.8102894E-2,-2.7136292E-2,2.6621915E-2,-1.143582E-2,-3.923286E-3,2.261355E-2,1.3412298E-2,8.008973E-4],"categories":[],"categories_nodes":[],"categories_segments":[],"categories_sizes":[],"default_left":[0,0,0,0,0,0,0,0,0,0,0,0,0,0,0],"id":76,"left_children":[1,3,5,7,9,11,13,-1,-1,-1,-1,-1,-1,-1,-1],"loss_changes":[1.2308073E2,4.1487312E1,1.2374961E2,4.9968246E1,2.1034018E1,1.369313E2,1.814466E2,0E0,0E0,0E0,0E0,0E0,0E0,0E0,0E0],"parents":[2147483647,0,0,1,1,2,2,3,3,4,4,5,5,6,6],"right_children":[2,4,6,8,10,12,14,-1,-1,-1,-1,-1,-1,-1,-1],"split_conditions":[-2.1516082E0,4.7364575E-1,-5.613165E-1,-1.4937695E0,-2.263254E0,1.9598598E0,-4.2873764E-1,1.8102894E-2,-2.7136292E-2,2.6621915E-2,-1.143582E-2,-3.923286E-3,2.261355E-2,1.3412298E-2,8.008973E-4],"split_indices":[3,15,14,12,3,1,14,0,0,0,0,0,0,0,0],"split_type":[0,0,0,0,0,0,0,0,0,0,0,0,0,0,0],"sum_hessian":[2.652E3,3.2E1,2.62E3,2.8E1,4E0,7.38E2,1.882E3,2E0,2.6E1,2E0,2E0,7.19E2,1.9E1,1.21E2,1.761E3],"tree_param":{"num_deleted":"0","num_feature":"20","num_nodes":"15","size_leaf_vector":"1"}},{"base_weights":[1.5883661E-3,-1.0047755E-1,4.5347202E-1,-1.16561145E-1,6.8709507E0,-2.3312666E-1,1.1216309E0,-2.2241047E-3,4.3933177E-3,1.5896488E-2,9.861936E-2,-1.5918115E-2,3.4031454E-3,1.9026058E-2,-2.2331134E-3],"categories":[],"categories_nodes":[],"categories_segments":[],"categories_sizes":[],"default_left":[0,0,0,0,0,0,0,0,0,0,0,0,0,0,0],"id":77,"left_children":[1,3,5,7,9,11,13,-1,-1,-1,-1,-1,-1,-1,-1],"loss_changes":[1.2240701E2,2.4355298E2,2.2459369E2,1.272529E2,6.3304443E1,1.8909016E2,2.6091562E2,0E0,0E0,0E0,0E0,0E0,0E0,0E0,0E0],"parents":[2147483647,0,0,1,1,2,2,3,3,4,4,5,5,6,6],"right_children":[2,4,6,8,10,12,14,-1,-1,-1,-1,-1,-1,-1,-1],"split_conditions":[8.502239E-1,2.828618E0,-3.3227317E-2,9.464092E-1,1.451691E0,-6.976439E-1,2.8717348E-1,-2.2241047E-3,4.3933177E-3,1.5896488E-2,9.861936E-2,-1.5918115E-2,3.4031454E-3,1.9026058E-2,-2.2331134E-3],"split_indices":[3,7,4,12,0,13,11,0,0,0,0,0,0,0,0],"split_type":[0,0,0,0,0,0,0,0,0,0,0,0,0,0,0],"sum_hessian":[2.652E3,2.164E3,4.88E2,2.16E3,4E0,2.41E2,2.47E2,1.815E3,3.45E2,2E0,2E0,7.1E1,1.7E2,1.56E2,9.1E1],"tree_param":{"num_deleted":"0","num_feature":"20","num_nodes":"15","size_leaf_vector":"1"}},{"base_weights":[1.6179966E-3,-1.7150486E-1,2.6649937E-1,-4.4359364E-2,-1.085299E0,5.373923E-1,-2.737305E-1,-1.063179E-3,3.869494E-2,-5.336973E-3,-2.3570908E-2,3.8781008E-4,1.3947752E-2,1.551192E-2,-5.6097573E-3],"categories":[],"categories_nodes":[],"categories_segments":[],"categories_sizes":[],"default_left":[0,0,0,0,0,0,0,0,0,0,0,0,0,0,0],"id":78,"left_children":[1,3,5,7,9,11,13,-1,-1,-1,-1,-1,-1,-1,-1],"loss_changes":[1.21704384E2,1.8642847E2,1.5366245E2,3.4233167E2,1.3624043E2,2.9876898E2,1.8486447E2,0E0,0E0,0E0,0E0,0E0,0E0,0E0,0E0],"parents":[2147483647,0,0,1,1,2,2,3,3,4,4,5,5,6,6],"right_children":[2,4,6,8,10,12,14,-1,-1,-1,-1,-1,-1,-1,-1],"split_conditions":[1.3341543E-1,9.4636E-1,4.1884425E-1,8.75753E-1,4.553096E-1,-1.1944242E-3,-8.911957E-1,-1.063179E-3,3.869494E-2,-5.336973E-3,-2.3570908E-2,3.8781008E-4,1.3947752E-2,1.551192E-2,-5.6097573E-3],"split_indices":[0,10,9,10,18,4,17,0,0,0,0,0,0,0,0],"split_type":[0,0,0,0,0,0,0,0,0,0,0,0,0,0,0],"sum_hessian":[2.652E3,1.604E3,1.048E3,1.409E3,1.95E2,6.98E2,3.5E2,1.388E3,2.1E1,1.37E2,5.8E1,4.42E2,2.56E2,4.7E1,3.03E2],"tree_param":{"num_deleted":"0","num_feature":"20","num_nodes":"15","size_leaf_vector":"1"}},{"base_weights":[1.6142665E-3,-1.897174E0,2.5520561E-2,-5.5025494E-1,-2.8606799E0,-3.1708133E-1,1.5996416E-1,-1.7102264E-2,3.0672232E-2,2.5841284E-3,-3.4616604E-2,-3.8751753E-3,2.2344755E-2,1.3272811E-2,7.904892E-4],"categories":[],"categories_nodes":[],"categories_segments":[],"categories_sizes":[],"default_left":[0,0,0,0,0,0,0,0,0,0,0,0,0,0,0],"id":79,"left_children":[1,3,5,7,9,11,13,-1,-1,-1,-1,-1,-1,-1,-1],"loss_changes":[1.2047603E2,4.1252113E1,1.2077564E2,6.8188225E1,3.6510315E1,1.3368042E2,1.7775143E2,0E0,0E0,0E0,0E0,0E0,0E0,0E0,0E0],"parents":[2147483647,0,0,1,1,2,2,3,3,4,4,5,5,6,6],"right_children":[2,4,6,8,10,12,14,-1,-1,-1,-1,-1,-1,-1,-1],"split_conditions":[-2.1516082E0,-6.478335E-1,-5.613165E-1,6.4100826E-1,-1.6899115E0,1.9598598E0,-4.2873764E-1,-1.7102264E-2,3.0672232E-2,2.5841284E-3,-3.4616604E-2,-3.8751753E-3,2.2344755E-2,1.3272811E-2,7.904892E-4],"split_indices":[3,0,14,12,8,1,14,0,0,0,0,0,0,0,0],"split_type":[0,0,0,0,0,0,0,0,0,0,0,0,0,0,0],"sum_hessian":[2.652E3,3.2E1,2.62E3,1.4E1,1.8E1,7.38E2,1.882E3,1.1E1,3E0,3E0,1.5E1,7.19E2,1.9E1,1.21E2,1.761E3],"tree_param":{"num_deleted":"0","num_feature":"20","num_nodes":"15","size_leaf_vector":"1"}},{"base_weights":[1.6032327E-3,-1.1015771E-1,4.0658784E-1,-1.4619546E-1,1.7314218E0,3.3894508E0,2.8718537E-1,-2.002397E-2,-1.1469293E-3,6.257166E-2,4.044493E-3,-3.9241887E-3,5.180484E-2,-8.00657E-3,6.8669477E-3],"categories":[],"categories_nodes":[],"categories_segments":[],"categories_sizes":[],"default_left":[0,0,0,0,0,0,0,0,0,0,0,0,0,0,0],"id":80,"left_children":[1,3,5,7,9,11,13,-1,-1,-1,-1,-1,-1,-1,-1],"loss_changes":[1.2012344E2,1.3829515E2,2.0346313E2,1.1911786E2,2.3769078E2,1.5104897E2,2.408854E2,0E0,0E0,0E0,0E0,0E0,0E0,0E0,0E0],"parents":[2147483647,0,0,1,1,2,2,3,3,4,4,5,5,6,6],"right_children":[2,4,6,8,10,12,14,-1,-1,-1,-1,-1,-1,-1,-1],"split_conditions":[6.9502854E-1,2.874943E0,-1.5640935E0,-2.1605124E0,-8.21372E-1,-3.653763E-1,-6.2028855E-1,-2.002397E-2,-1.1469293E-3,6.257166E-2,4.044493E-3,-3.9241887E-3,5.180484E-2,-8.00657E-3,6.8669477E-3],"split_indices":[8,15,18,14,7,4,16,0,0,0,0,0,0,0,0],"split_type":[0,0,0,0,0,0,0,0,0,0,0,0,0,0,0],"sum_hessian":[2.652E3,2.079E3,5.73E2,2.04E3,3.9E1,2.1E1,5.52E2,3.3E1,2.007E3,8E0,3.1E1,7E0,1.4E1,1.48E2,4.04E2],"tree_param":{"num_deleted":"0","num_feature":"20","num_nodes":"15","size_leaf_vector":"1"}},{"base_weights":[1.6221135E-3,-8.3069734E-2,5.310574E-1,-2.3542337E-1,3.2002336E-1,1.3171039E0,-2.9747778E-1,-1.840105E-3,-2.0364612E-2,-2.0938786E-3,9.959731E-3,2.5888693E-2,4.501014E-3,1.2222014E-2,-6.116561E-3],"categories":[],"categories_nodes":[],"categories_segments":[],"categories_sizes":[],"default_left":[0,0,0,0,0,0,0,0,0,0,0,0,0,0,0],"id":81,"left_children":[1,3,5,7,9,11,13,-1,-1,-1,-1,-1,-1,-1,-1],"loss_changes":[1.1900159E2,1.4058757E2,2.3875558E2,1.5342809E2,2.2494171E2,2.0612805E2,8.621117E1,0E0,0E0,0E0,0E0,0E0,0E0,0E0,0E0],"parents":[2147483647,0,0,1,1,2,2,3,3,4,4,5,5,6,6],"right_children":[2,4,6,8,10,12,14,-1,-1,-1,-1,-1,-1,-1,-1],"split_conditions":[1.0875837E0,4.8540574E-1,1.524884E0,4.456895E-1,-1.7741483E-2,-2.7393505E-1,-8.143668E-1,-1.840105E-3,-2.0364612E-2,-2.0938786E-3,9.959731E-3,2.5888693E-2,4.501014E-3,1.2222014E-2,-6.116561E-3],"split_indices":[12,1,12,1,4,19,6,0,0,0,0,0,0,0,0],"split_type":[0,0,0,0,0,0,0,0,0,0,0,0,0,0,0],"sum_hessian":[2.652E3,2.287E3,3.65E2,1.66E3,6.27E2,1.87E2,1.78E2,1.615E3,4.5E1,3.52E2,2.75E2,7.5E1,1.12E2,3E1,1.48E2],"tree_param":{"num_deleted":"0","num_feature":"20","num_nodes":"15","size_leaf_vector":"1"}},{"base_weights":[1.6139759E-3,-1.8783576E0,2.5283357E-2,-5.4384595E-1,-2.8330586E0,-3.129466E-1,1.5801126E-1,-1.6918113E-2,3.036012E-2,2.5281475E-3,-3.4274604E-2,-3.8254806E-3,2.208354E-2,1.3127133E-2,7.7970594E-4],"categories":[],"categories_nodes":[],"categories_segments":[],"categories_sizes":[],"default_left":[0,0,0,0,0,0,0,0,0,0,0,0,0,0,0],"id":82,"left_children":[1,3,5,7,9,11,13,-1,-1,-1,-1,-1,-1,-1,-1],"loss_changes":[1.1810007E2,4.0503212E1,1.1771284E2,6.677966E1,3.5717255E1,1.3052914E2,1.739304E2,0E0,0E0,0E0,0E0,0E0,0E0,0E0,0E0],"parents":[2147483647,0,0,1,1,2,2,3,3,4,4,5,5,6,6],"right_children":[2,4,6,8,10,12,14,-1,-1,-1,-1,-1,-1,-1,-1],"split_conditions":[-2.1516082E0,-6.478335E-1,-5.613165E-1,6.4100826E-1,-1.6899115E0,1.9598598E0,-4.2873764E-1,-1.6918113E-2,3.036012E-2,2.5281475E-3,-3.4274604E-2,-3.8254806E-3,2.208354E-2,1.3127133E-2,7.7970594E-4],"split_indices":[3,0,14,12,8,1,14,0,0,0,0,0,0,0,0],"split_type":[0,0,0,0,0,0,0,0,0,0,0,0,0,0,0],"sum_hessian":[2.652E3,3.2E1,2.62E3,1.4E1,1.8E1,7.38E2,1.882E3,1.1E1,3E0,3E0,1.5E1,7.19E2,1.9E1,1.21E2,1.761E3],"tree_param":{"num_deleted":"0","num_feature":"20","num_nodes":"15","size_leaf_vector":"1"}},{"base_weights":[1.6027134E-3,-9.2048205E-2,4.7541285E-1,-1.0627469E-1,4.412604E0,-4.50127E-1,9.9413127E-1,-1.9187693E-2,-7.537838E-4,3.1175613E-3,9.776481E-2,-1.379928E-2,9.370795E-3,2.208631E-2,3.0039186E-3],"categories":[],"categories_nodes":[],"categories_segments":[],"categories_sizes":[],"default_left":[0,0,0,0,0,0,0,0,0,0,0,0,0,0,0],"id":83,"left_children":[1,3,5,7,9,11,13,-1,-1,-1,-1,-1,-1,-1,-1],"loss_changes":[1.1776469E2,1.4248203E2,2.1072891E2,1.2361401E2,1.5092723E2,2.050856E2,2.3609207E2,0E0,0E0,0E0,0E0,0E0,0E0,0E0,0E0],"parents":[2147483647,0,0,1,1,2,2,3,3,4,4,5,5,6,6],"right_children":[2,4,6,8,10,12,14,-1,-1,-1,-1,-1,-1,-1,-1],"split_conditions":[9.341576E-1,2.828618E0,-6.0224676E-1,-2.1605124E0,1.451691E0,5.4596838E-2,-2.5113195E-1,-1.9187693E-2,-7.537838E-4,3.1175613E-3,9.776481E-2,-1.379928E-2,9.370795E-3,2.208631E-2,3.0039186E-3],"split_indices":[3,7,13,14,0,16,17,0,0,0,0,0,0,0,0],"split_type":[0,0,0,0,0,0,0,0,0,0,0,0,0,0,0],"sum_hessian":[2.652E3,2.215E3,4.37E2,2.209E3,6E0,1.57E2,2.8E2,3.6E1,2.173E3,4E0,2E0,9.4E1,6.3E1,1.01E2,1.79E2],"tree_param":{"num_deleted":"0","num_feature":"20","num_nodes":"15",